{
  "Layers": [
    {
      "Neurons": [
        {
          "Bias": -2.1875327,
          "Weights": [
            -0.8448568, 5.6532583, 1.9769987, -0.29761326, -1.5450753, 2.1550515, 1.4288957, 0.5909496, 1.9262614,
            2.1264997, 0.8377651, -7.2376723, 0.28295362, -3.2498693, -4.056158, 1.6817813, -0.38669744, 1.0598525,
            -1.6249833, 3.0942702, 2.7033715, -0.9431536, -1.5715411, 7.351811, -0.37204736, -0.90396863, 0.81281716,
            1.3897423, 0.8396281, -5.379894, 1.1202707, -1.2472782
          ]
        },
        {
          "Bias": 4.0752387,
          "Weights": [
            1.1469603, -0.72054386, -0.6764138, -1.6328746, -0.28443742, -0.3807157, -4.0237126, 2.4221885, -3.8765297,
            3.6052122, -1.3764269, -3.6642597, -3.591294, 3.8294396, -0.828982, -1.4709773, -3.3052812, 1.5398643,
            2.4597301, -0.76683664, -1.1984133, 0.5956523, -2.3650174, -0.72177434, 1.845647, -3.128147, -1.6539629,
            -0.017398149, 2.4170399, -2.9097986, 2.745375, 1.6903169
          ]
        },
        {
          "Bias": 1.1852491,
          "Weights": [
            -0.34467506, -0.70997584, 0.8515662, 1.0038838, 4.6996307, 3.2240987, -4.1752777, 0.5863447, 0.064665556,
            0.27709287, 1.0185165, 1.8228846, 3.0441062, 0.7864004, 0.82285166, -1.5830506, 1.5920262, 0.36663762,
            -1.4921854, -0.39720395, 2.7885458, 2.2588828, -2.758943, -4.388675, 2.1258082, -2.4825592, -5.2397966,
            -1.4176469, -1.9106143, -0.122198194, 0.9155997, 1.2928228
          ]
        },
        {
          "Bias": 3.3396575,
          "Weights": [
            -2.1437414, 0.93101025, -0.8296983, 2.7445645, 0.16486835, 1.4847822, -0.94810027, 1.0785848, 1.0833582,
            3.1677608, 2.4047852, 2.101734, -0.0927434, 4.070924, 3.1962423, -1.8679534, 5.143559, -0.41795576,
            1.516748, 1.1948404, -0.43717122, -2.8724337, 0.35605186, -0.36682904, 0.50048465, -1.8204719, -0.020055056,
            -5.5014577, -1.685602, 2.7818565, 1.6427356, -4.3956842
          ]
        },
        {
          "Bias": -0.23469925,
          "Weights": [
            4.9375334, -0.36808696, 1.3849809, -1.412397, 0.17682934, -2.128862, -1.4882915, 0.3915128, -1.3532852,
            -0.14133745, -0.6591966, 2.513317, -2.9849741, -2.5840468, -1.5190831, 3.7610915, -3.057195, -1.4651749,
            -0.86762786, 3.7881243, -0.020815969, 1.1733786, 1.3306354, -0.34067297, -1.7388656, -4.134729, -1.0029778,
            4.747722, 3.1309931, 0.31719992, 0.41516024, 0.009756783
          ]
        },
        {
          "Bias": -2.4728618,
          "Weights": [
            -0.9293215, 0.7761178, 1.4913126, -0.036105037, -6.829638, 1.1010703, 5.0895357, 1.5976481, 0.9854493,
            -2.9799492, -1.298028, -2.185535, 1.8227928, -2.190485, -0.80405605, 3.8911445, 1.451699, -1.4673107,
            -0.58241844, -2.082093, 3.0250232, 2.5164435, -2.5857499, -3.1928945, 2.7136717, 0.20877808, -7.783872,
            -1.2628081, -1.532625, 0.019641057, -1.965892, 1.6307046
          ]
        },
        {
          "Bias": -0.1861918,
          "Weights": [
            0.5964728, -5.102395, 1.8122004, -4.8603606, 1.6766431, -2.4536576, -2.0636852, 0.0047385693, -0.49861118,
            2.300603, -0.08848357, 1.1476066, -1.223067, -3.7198641, 0.059973657, 1.9521735, 0.26298493, 1.22418,
            -1.4856594, -1.5151622, -3.5652456, -0.36386842, -4.033738, -2.7270615, 1.9621086, 0.7969041, 6.1456428,
            0.9094939, -0.34272638, -5.7798095, 2.8182337, 1.8125907
          ]
        },
        {
          "Bias": 0.7527667,
          "Weights": [
            -2.4756951, 1.6649872, 2.2418034, -0.89848554, 0.7954716, 1.304483, -0.45858586, 1.6411235, -3.125912,
            0.744933, 0.97816306, 0.6357273, 2.8778095, 2.8211508, 1.3687453, 1.0830185, -0.54204357, 1.8949637,
            2.41493, -1.6228638, 0.9157668, 0.3451445, 1.3780756, -0.6551333, 3.1523101, 2.8872638, -1.332124,
            2.3934479, -4.8476734, -1.6553829, -0.035782754, 2.3130102
          ]
        },
        {
          "Bias": -2.947588,
          "Weights": [
            -5.9715867, -0.5381199, -1.1089448, 1.8668042, 0.9066379, 0.63822305, 1.5052516, -1.1411217, -2.9435935,
            1.2596886, -0.99424005, -0.25892437, -0.483334, 5.9887056, -0.4868735, 2.436647, 4.0997086, -0.80355555,
            -2.6037865, -2.0648365, 1.508832, 3.0561345, -5.235426, -3.8560104, 1.0550759, 2.2783115, 3.9334292,
            1.8622091, 2.6850078, -0.9078806, -2.7260187, -0.09768212
          ]
        },
        {
          "Bias": 0.39521402,
          "Weights": [
            0.7217206, -2.4331098, -5.5743256, 4.0332556, 1.0905765, 2.1134982, 3.0138004, -1.8304508, -2.5206058,
            -2.435233, -0.40663052, 4.1261377, 1.2948596, 2.4674, -0.80142206, 3.9296243, -3.0937786, 6.0616612,
            1.4779348, -2.285099, 4.754608, -1.8270061, -1.4643701, -0.98674256, -1.0344065, -0.90311223, 2.0943513,
            0.12422013, 3.0444458, -0.8943951, 0.89685774, 0.7228889
          ]
        },
        {
          "Bias": -0.76545024,
          "Weights": [
            2.4796987, -0.9971188, 1.1468357, -0.52528155, -1.1182935, 1.8910842, 2.1440182, -2.3019753, 0.91906315,
            -0.6527998, -0.5443918, 0.67959, -6.8778715, -0.748793, 0.34731048, 1.0325642, -1.5721977, 0.33068848,
            1.1837423, -6.584496, -1.4825398, 0.89337146, -3.6045766, 0.37532246, -2.6820946, -5.389493, -1.8012409,
            5.969804, 2.3325305, -0.31663316, 1.4075134, -3.672886
          ]
        },
        {
          "Bias": 1.643306,
          "Weights": [
            -1.4630098, 2.3423665, 4.205849, -0.53607166, -3.5864842, -0.9486919, 0.4960742, -2.4406154, 0.52742314,
            3.068812, 2.270119, 2.2194443, 0.4754814, 5.6388936, 8.293388, -0.67536485, -1.3317076, -1.0611641,
            0.19011092, 0.9797853, 5.2427473, -1.3425101, 2.5927327, -3.7342377, 2.9919868, 0.3707536, -4.825055,
            0.13419497, 6.4654007, -1.6899209, 0.99092495, 0.99862874
          ]
        },
        {
          "Bias": 2.4419837,
          "Weights": [
            -0.70732915, -2.534865, -4.6447906, -1.3705541, -1.0240487, 1.1366653, -3.7455237, 5.467125, 2.3701882,
            1.793932, -2.996029, -0.17984247, -0.15547729, 1.0594416, 3.6992736, 2.2972958, -3.5501502, -4.1735415,
            -0.9828802, 1.8420901, 1.8310707, 0.8379599, -1.42072, 1.5896298, 1.1031749, -3.6780188, 2.4649005,
            -4.1195464, 5.261877, -3.4864035, -2.6405642, 1.7896718
          ]
        },
        {
          "Bias": 3.5438497,
          "Weights": [
            -1.6901529, -1.5353856, -1.5595279, -0.69714445, -4.1979756, 3.6653547, -0.1491231, 0.46782684, 1.0489333,
            0.10640454, 0.81546664, -3.6042466, 1.0845453, 0.74608564, -1.0974503, -0.2334739, 2.9122033, 2.2819982,
            2.7521214, -3.5017452, -4.340088, -4.164208, 1.7571458, 3.3179767, 1.676036, 1.8852098, 0.012695432,
            0.7728269, 0.1917687, -0.26243448, 2.583074, -6.221225
          ]
        },
        {
          "Bias": -3.8659086,
          "Weights": [
            -2.3938751, 6.0648775, -0.38101, -4.960253, 1.7648544, -1.9929408, 0.54281664, -6.2025266, -3.6211872,
            -1.0187222, -2.4572723, 2.3900945, 2.8152664, 0.37706667, -4.6934686, -1.9917638, -4.0369353, 3.9915514,
            1.400789, 1.9955676, -0.75134057, -0.44264114, 0.110660434, -2.6636782, -1.046638, 0.22498512, -4.489435,
            -0.57392573, -1.5252985, 5.157783, 0.62719417, -3.59412
          ]
        },
        {
          "Bias": -2.7059834,
          "Weights": [
            -0.2758531, 1.4947424, -3.0811448, -0.5295062, 0.06636241, -2.7015207, 1.314534, -2.5252, -1.1421584,
            3.2324886, 0.8200797, 3.8366709, 1.2384067, 5.6059856, 1.671954, 3.658629, 0.9388632, -0.09674621,
            2.5449862, 1.3642133, -1.4105186, -1.6255647, 3.5856233, 1.1293461, -0.8325559, -0.103734925, -0.99259764,
            1.8566978, -3.7974596, -3.3333766, -2.5170672, -3.232995
          ]
        },
        {
          "Bias": 1.2425458,
          "Weights": [
            -0.28695476, -2.635221, 1.5191951, 2.0022125, -1.6518503, -0.04335302, -1.9351683, -3.512693, 0.342777,
            -5.396743, 3.7362075, -3.6845465, 0.5896772, -3.7217767, -0.08272797, -0.13101912, -4.3370147, -2.6142845,
            -4.263687, -1.5047752, 5.5814614, -1.3441024, -3.421487, -4.103449, -2.720911, -0.12775743, -2.7061367,
            -0.543882, 5.300744, -2.280065, -3.3924093, -2.0103354
          ]
        },
        {
          "Bias": 3.2426546,
          "Weights": [
            -2.18276, 0.7140999, -1.8778522, -0.09958416, -0.033365965, 0.045077085, -3.5852005, 1.6565747, -3.102374,
            3.082658, 0.3745078, -0.5182011, -0.24758846, 3.6617785, 1.1627536, -0.20822418, -1.4348766, -1.428536,
            4.2198853, 2.9532862, 3.5402064, 0.7800895, 2.143652, 0.68103504, 4.3873196, -4.142792, -2.2145753,
            0.9479393, -2.1566937, 1.0708331, 0.67206717, -5.691828
          ]
        },
        {
          "Bias": -2.9730663,
          "Weights": [
            1.9662952, 0.08364305, 2.545114, 2.5748851, 0.3833319, -0.5851962, -9.061843, -2.0958505, -1.3657081,
            -0.0055718124, -4.212665, 3.397017, 0.7577337, 0.2896107, 1.862632, -2.9134974, 1.1063418, -1.753145,
            -1.3968577, 0.53029466, 0.22406161, -4.7651157, 5.9983854, 0.58830106, -0.020366907, -0.016305521,
            1.7212639, -1.2380062, 0.7944671, 1.7554771, -2.4222202, -5.1907325
          ]
        },
        {
          "Bias": -1.2117538,
          "Weights": [
            -1.8423139, 6.0244417, -0.22970837, -0.007958554, -1.7219839, -0.66109073, 2.8367603, 1.5380278, -1.7249327,
            2.6998324, -0.24032089, 2.3463547, 0.96854526, 0.105796695, 2.0069504, 1.2057989, -3.12073, -4.0836115,
            -0.1942074, 0.06317711, -0.9530785, 7.003604, -8.592363, -4.5879555, 2.0170074, -3.3813584, 1.7484472,
            -0.62135696, 0.6044954, -5.3782907, 2.9453673, 1.3355262
          ]
        },
        {
          "Bias": -0.20625713,
          "Weights": [
            2.6162438, 3.689499, -3.287431, 2.9438083, -2.5488145, 0.58857983, -0.9018999, 3.3922088, -2.482579,
            0.43905452, 0.67724514, 2.0432708, 4.3787465, -1.1784765, -5.4851604, -4.380746, -2.7511206, 1.6034077,
            -0.9587784, -4.2769175, -0.40996963, -1.638202, 1.1456653, -0.14194092, -1.3040235, 0.30180722, 0.22494638,
            -4.7890234, -1.3160434, -1.4192173, 1.3076888, 4.640519
          ]
        },
        {
          "Bias": 0.120203555,
          "Weights": [
            -4.906996, 1.3531346, -0.20150846, 1.1428474, -3.0752554, 0.98211133, -0.83528364, -2.4080768, 1.0660003,
            -3.6716013, -4.3681297, 1.1290125, -1.6773164, 1.388418, 3.8569026, 0.9321321, -5.3166966, 2.5105226,
            2.1422307, -3.416311, -0.2589326, 2.297249, -0.28681737, 1.2591476, 2.9271548, 1.3956352, 0.9655909,
            -4.1856213, 0.28534698, 3.9717312, 2.0310404, 0.816511
          ]
        },
        {
          "Bias": -1.4244217,
          "Weights": [
            4.9456005, -2.9843707, 3.0876284, -1.80669, -2.3669739, -0.83558667, 3.5498064, 2.8934984, 5.449144,
            -2.2062724, 2.6127715, 3.593046, 0.6330268, 2.747794, -0.13597685, -1.2608062, 0.14332163, 3.3688662,
            -0.6424054, -1.0228455, 2.5515194, -3.8119354, -1.7332776, -0.85945237, -4.538819, 0.26109874, -2.6975613,
            0.95162386, -0.30327022, -0.845748, -4.8783455, 0.12631619
          ]
        },
        {
          "Bias": -0.1527906,
          "Weights": [
            -6.9742994, 2.2965975, -0.7134748, -2.085753, 2.8681974, 3.5469308, -3.6401722, 2.350664, 3.2929444,
            -1.9107833, 1.6659038, 4.2531776, -0.7759187, -1.971997, -2.9210527, 1.2660453, -2.028489, -1.6489646,
            2.0428185, -4.902643, 3.4634206, 0.22427133, -0.4724598, -0.0692133, -4.0546155, -3.6053479, 1.3033562,
            -0.24443105, -6.0893226, -4.604786, -0.426001, -0.90753675
          ]
        }
      ]
    },
    {
      "Neurons": [
        {
          "Bias": -0.03973359,
          "Weights": [
            1.8586142, -1.0934278, 1.6996517, -1.2821587, 1.530399, -1.6329981, 0.1280857, -0.4660765, -1.485755,
            1.3087702, 4.8481684, 1.1792473, 0.9110637, 5.8862896, -0.0066714585, 0.25451976, 3.7576425, 2.0424185,
            -1.615, -1.9045498, 0.7508392, 1.4027488, 3.5533118, 1.7816411, 1.8341899, 0.07882038, 1.2538009, -0.796069,
            -0.18893743, 1.0640018, -0.2877183, -0.30259866
          ]
        },
        {
          "Bias": 0.11581287,
          "Weights": [
            -2.5444536, -1.4149159, -1.9452531, -1.1191683, 2.1460595, 1.3671335, 0.29435015, -0.58548355, 2.3776684,
            0.94355965, 2.9215553, 1.4597301, 2.0215516, -0.8290535, -1.960392, -1.7700875, 7.418669, -0.006238997,
            0.40146405, 1.6726755, -1.8438058, -0.016108006, -1.0877186, -2.7773616, -1.8145336, -4.657022, 0.86290073,
            0.06962073, 2.9547477, -2.0307915, -2.7686746, 1.25042
          ]
        },
        {
          "Bias": -0.050940365,
          "Weights": [
            2.6595807, -0.5432449, 2.7760587, 2.5614424, 0.9917235, 0.3451529, -1.6181284, -7.083004, 1.5407771,
            -2.4363034, 3.0312848, -0.8133203, 1.9488442, 4.3510523, -3.381968, 0.8489326, 0.61811346, 1.0355754,
            0.3757922, -1.4164356, -3.9212394, -2.9698532, 2.6898139, 1.2203422, -1.4119003, 5.2320256, -0.39462674,
            2.416747, 0.77436924, -2.3091516, 1.5974239, -1.6471047
          ]
        },
        {
          "Bias": 0.021952614,
          "Weights": [
            -4.4379587, -2.0020797, -1.1697664, -3.9217083, -1.1726837, 2.2525978, 3.2260783, 2.0556467, 0.2839948,
            -3.079134, 1.4285393, -0.34299374, 2.3464785, 1.1875722, 2.073649, -1.1249096, 3.079667, 3.5392127,
            -0.5383776, 0.58776855, -4.6915903, 1.5650415, -0.5417597, -4.020244, -2.9407167, 4.3311334, 0.49674886,
            -3.9699, -3.328411, -0.26317325, 2.988142, -1.7473341
          ]
        },
        {
          "Bias": -1.183214,
          "Weights": [
            -0.8043978, -3.4965997, -2.3189514, -1.4192059, -1.4692533, 4.6268864, -0.12311584, -0.3700303, -2.6015491,
            -0.07102241, -3.520633, -3.305008, 0.69621515, -1.7507832, -4.678425, 1.4293915, -2.27881, 1.7130618,
            -0.24916375, -1.1339935, 5.8439803, 1.9745827, -1.7618521, 5.3080406, -4.9559903, 1.2104445, -3.667557,
            -0.17444086, -0.72995186, -1.3653393, -2.5502465, 2.6899514
          ]
        },
        {
          "Bias": 2.2302258,
          "Weights": [
            -1.8688818, 4.472024, 4.2271085, -1.2803082, -5.985573, -1.5099626, -5.6487727, -7.8647647, 1.4685302,
            -0.9629825, -0.8165245, 3.0951853, -1.2725531, -1.2887198, 1.1240772, -0.51595443, 0.4369535, 0.08404839,
            -3.8408928, 0.8992368, 1.4650497, -1.4768744, -1.8294258, 2.3961344, -0.33998257, -1.5651499, -2.042221,
            1.9483745, -2.5726986, 2.647438, -5.828885, -0.84025127
          ]
        },
        {
          "Bias": -1.123189,
          "Weights": [
            -1.6188875, 1.2321928, -0.9500038, 0.05217862, -0.17383191, -0.53776175, 3.7262836, -4.808327, -0.28954378,
            3.8505297, -4.0161133, -0.8790413, 2.1931431, -1.1881659, 5.3095045, 0.8410964, 0.8149475, -4.489718,
            -3.1582475, -1.5585252, 1.9515425, -4.614159, -2.3403873, 1.0184441, 1.4512438, 3.1774478, 3.5682392,
            1.4569771, 4.4301634, 2.547258, -0.17110893, -0.7473176
          ]
        },
        {
          "Bias": 1.8032761,
          "Weights": [
            -1.0209084, 0.41712022, -3.7830052, 1.0943663, -0.73467386, 1.4862176, 0.5952177, -2.5706122, 0.17827868,
            6.3545938, -3.418362, 1.6715418, -0.9374932, 1.169481, -1.7338591, -1.151061, 2.0138807, 2.5312927,
            3.0424535, -0.104100645, 0.7340473, 2.828036, -1.0739254, 1.9631252, -0.35656488, -1.5939604, 2.9251842,
            -2.7953293, 5.8392067, 2.202333, 1.0857923, 4.232766
          ]
        },
        {
          "Bias": -0.53758574,
          "Weights": [
            -2.9156075, -0.0004364252, -1.5182643, -3.2225966, -1.4470286, -1.959404, -2.6339283, -0.66373146,
            1.0595216, 2.913405, -1.3810554, 0.14222816, 2.0571733, -1.4109936, -0.3087787, 0.9914699, 2.806044,
            0.74735165, -1.9517134, -0.5795294, -1.8746661, 4.0983906, 1.9034283, -1.3262577, 3.8341467, -1.1529278,
            2.5283124, -0.19605991, 6.7597284, -3.0604753, 1.7470049, 3.1612763
          ]
        },
        {
          "Bias": 0.8265582,
          "Weights": [
            1.0820863, 0.79182494, 4.698066, 3.447041, 4.9540896, -0.20803022, 3.6097941, -1.4287083, -3.4347188,
            1.4620843, 0.64618564, 2.3947525, -0.28869343, 0.23419473, -1.2986966, -2.0427957, 5.0442457, -2.1087427,
            -3.004484, 3.2882829, 1.1845417, -1.955488, 1.6970766, -1.2622163, 0.7289246, -0.23096457, -1.9789414,
            -2.0420656, -0.85556245, -1.847078, -0.751552, -1.7078139
          ]
        },
        {
          "Bias": 0.00024722243,
          "Weights": [
            -1.4499263, -2.5818748, 0.19753306, -2.1895268, 1.7941563, 1.4012928, -4.020215, 4.395969, -0.80912614,
            5.451963, 1.5364969, -4.1993, 4.3322077, 0.06889677, 0.5797112, 0.6610148, 0.7674967, -3.1429276,
            -2.2423716, -0.92358446, 2.138626, 5.7433386, 0.7679513, 0.31440815, 3.2505243, 2.1197615, 0.0393942,
            -0.62037253, -4.111104, -2.2425098, -0.4902602, 1.6183271
          ]
        },
        {
          "Bias": -0.64585716,
          "Weights": [
            -0.74943733, 0.74203515, 5.1352882, 0.9050324, 1.1045531, 2.0242796, 0.053927973, -1.518158, -4.3765197,
            2.5949745, -0.761744, -2.330736, -3.759997, -1.0892545, 0.9950204, 0.82897973, 0.07989363, 1.2055724,
            -0.9830422, -0.3500256, -1.6994852, 0.40091723, -2.8216126, -0.90322405, -0.9292157, 1.4068804, -1.3161781,
            -0.73800415, 2.3112774, 0.5195453, 3.1930585, -1.9397976
          ]
        },
        {
          "Bias": 1.0619127,
          "Weights": [
            -2.7184632, -0.88387406, 0.8408382, 1.7402267, 2.2189536, -0.5003591, -1.4572186, -1.6075613, 2.6491854,
            0.5797444, -3.3456979, 0.5459182, 8.91313, 2.1552625, 4.2543726, -0.9932397, -2.2098136, 3.051629,
            -0.08620566, 1.1602335, -1.420149, 2.5127532, 2.0757036, 1.8323264, 0.03647709, 1.7384994, 3.623723,
            -1.7219545, -0.6433282, -0.26448548, -3.712517, 0.11869645
          ]
        },
        {
          "Bias": -1.1237236,
          "Weights": [
            -2.481297, 2.4119782, 4.7017093, 2.536121, 5.068774, 1.5517062, 2.1143436, -5.8059793, 1.4271467,
            -2.3367226, 1.2514229, -1.6595851, -2.5007892, 3.4103434, 0.96014017, 4.7757893, -2.295329, 0.35304096,
            2.8309665, 1.780251, 0.7684314, -1.0526066, -2.1251962, 2.8665009, 0.11584437, 2.9102159, 1.8189046,
            4.063023, 2.7050724, 3.4162855, -5.395457, 2.5772772
          ]
        },
        {
          "Bias": -2.632964,
          "Weights": [
            -4.6413865, 1.1778139, 1.0307726, -5.404908, 0.44548643, -1.8411316, 3.140295, -0.9077316, 2.6601028,
            -3.3041837, -0.91876006, 2.8678951, 0.372266, 2.2226887, -0.44030702, 2.9244127, -0.3809669, 4.0275893,
            2.1635253, -3.4599986, 3.9384322, 1.0663061, 1.8184853, 0.532356, -0.8765877, 0.983209, 2.1425903,
            -1.2980001, -1.4033009, -2.2526634, -1.8606042, -1.1498264
          ]
        },
        {
          "Bias": -0.90803343,
          "Weights": [
            -0.300456, 0.6150377, 0.86077666, -0.25967264, -4.611836, -3.3756084, 0.22744855, 2.779666, -0.68120384,
            -1.6548294, 1.163196, -1.6363212, 1.1009549, -2.3565133, -0.2031944, -2.199463, 2.5410843, -0.51666725,
            -0.2021435, -0.42044154, -5.827113, -0.49640888, -0.22065508, -1.8666897, 2.7182035, 0.7501937,
            -0.055264235, 0.52, -2.6985035, -0.012299657, 0.9327016, -0.75540376
          ]
        },
        {
          "Bias": -4.151675,
          "Weights": [
            -0.29054058, -1.614038, -1.123908, 0.5977119, -4.512428, 0.55875766, -1.7836285, -0.23447248, -6.238757,
            7.210909, 2.661296, 0.8700059, 0.3301763, 7.4778247, 4.881627, -4.942997, -0.0049508214, -2.080984,
            4.282758, 1.672333, 0.6601115, 1.5675709, 0.2383408, 3.0443246, 1.5677441, -0.68337226, -1.9521611,
            1.441325, 1.529649, -3.7014194, -1.5596571, 7.180659
          ]
        },
        {
          "Bias": 1.0745059,
          "Weights": [
            5.959912, -1.8416094, 3.1791224, 0.6359956, -3.0495172, 6.2391653, -0.3613206, 1.9236903, -1.3689046,
            2.519994, -7.3138094, -0.01633209, 6.7250133, -0.5714523, -0.08127722, 1.5690706, 2.2080185, 1.9418385,
            -3.3467174, -1.9888299, -0.9150267, 0.05910316, -0.29938266, -2.3337946, -4.246302, 1.4917285, 3.1296878,
            -2.2558668, 1.0665209, 1.4974678, -5.0640793, 2.1942396
          ]
        },
        {
          "Bias": -1.0130278,
          "Weights": [
            1.3363847, 1.4117095, -3.9909868, -3.9655366, -1.0341231, 3.54764, -0.32206994, -1.4015049, -2.1311145,
            0.558094, 0.22982442, 5.401975, -2.882574, -3.5791698, 3.8632677, 3.3507762, -2.4106061, -2.0553308,
            -3.3956285, 2.2467544, 4.3779564, 0.39869046, 3.2161615, -3.3948562, 2.1018429, -0.15074232, -3.6075444,
            1.2285811, 0.6175064, 1.2317097, 3.6584587, -2.0213048
          ]
        },
        {
          "Bias": 1.0958004,
          "Weights": [
            2.6337185, 1.0049341, 1.2797582, -2.6070364, 1.2851242, 5.78471, -2.3199434, -0.5972537, 1.3559132,
            -4.795594, -2.3988874, 2.934204, -2.1061127, 2.2015417, -1.9057943, -1.7095629, 0.35540617, 2.5572517,
            5.920015, 0.006410092, 5.9123087, 0.009350479, 5.4213023, 1.2732546, -0.34002262, -1.4019083, -3.0857005,
            -0.51456535, 2.9278927, -1.7399092, -0.332854, -1.1058046
          ]
        },
        {
          "Bias": 3.7252924,
          "Weights": [
            -0.15941945, 2.6505733, 0.18439889, 0.41803497, -2.923532, -0.04323554, 2.6826718, 1.8302102, 0.28104734,
            -0.44060206, 1.8662732, -0.27749848, 0.7635484, -1.9402678, 1.1135706, 0.3525118, -0.37917852, 3.6345322,
            0.034359396, 0.3968526, 2.0183637, -0.20744196, -4.4423723, -0.439214, -2.3936262, -1.9054518, 4.299057,
            2.5453057, -0.34685755, 4.210915, -0.8021529, -0.8145115
          ]
        },
        {
          "Bias": -1.1720963,
          "Weights": [
            -1.9784482, 0.03900373, 2.4784265, -0.97740644, 1.4189622, 6.8166256, -1.1065716, -1.6629909, 4.3009396,
            3.1557286, -0.0796141, 0.16374639, -0.9716192, 0.17308342, 1.3499174, -0.7717025, -0.5000644, -0.6503364,
            -1.9206, -0.10993436, -4.4270105, 2.2315278, -2.4474611, 0.32018313, -0.9341928, 3.9542716, 1.7383277,
            -1.3837194, -2.4165282, -2.522059, 1.5341234, -1.3780924
          ]
        },
        {
          "Bias": -2.11394,
          "Weights": [
            1.8305142, -0.52750695, 4.6756964, 0.8551074, -1.570649, 2.4411743, -0.16438657, -4.815631, -0.23699832,
            -3.60007, 2.6084003, 2.21976, -1.9042065, -2.559979, 4.6112375, -1.133399, 0.56780046, 3.566168, -0.5594351,
            -1.6362305, 3.3471463, -1.0320513, 1.5427574, 1.2268808, 2.5737154, 0.6168447, -1.1444253, 4.2953777,
            -0.74716365, 1.746622, -3.457086, 1.9904356
          ]
        },
        {
          "Bias": 2.4283762,
          "Weights": [
            0.19474965, 0.11428529, -0.5580181, -2.0916712, -3.9532678, 1.0107679, -2.6249077, 0.27294183, 1.2439581,
            0.11592555, -2.6812477, 1.6196432, 3.001332, 0.96490073, -0.49168938, -2.0580947, -2.4938219, 1.0000567,
            0.48545974, 3.7764316, 3.0266035, -3.0465674, 3.3920965, -0.9129392, 4.553225, 0.7349983, 2.1953228,
            -4.3281455, -0.27203304, -2.1878042, -2.5552433, -0.9661902
          ]
        },
        {
          "Bias": 4.62333,
          "Weights": [
            -0.25877476, 3.5440943, 1.43473, 5.326599, 2.3889365, 0.700791, -3.062548, 2.423449, -6.0008097, -4.6940055,
            -3.3091543, 1.9102721, 0.17333868, 2.7195904, 4.1771607, -0.61609066, -1.8379333, 0.05776626, 1.5015535,
            -0.9290407, 4.29131, -1.7579147, 3.141756, -4.1928544, -1.8394437, 4.125109, 2.9322047, 0.46422163,
            -0.49162948, -1.2550205, -1.7570088, 4.056835
          ]
        },
        {
          "Bias": -2.963019,
          "Weights": [
            -0.2708541, -4.590643, -1.3101292, -1.89835, -0.85584366, 0.62733525, 0.5083506, -1.9610218, 4.418916,
            -2.9659376, 1.1771157, 1.9911973, -5.0179977, -3.9750595, -2.451867, 0.26073205, -1.1082382, -1.2281896,
            -1.9842143, -1.0371238, 1.7842026, -5.2927237, -0.72306544, -0.12668848, -3.8299932, 1.3140969, 0.94837797,
            1.169894, -1.9609888, 0.91532505, 3.5389166, 10.940826
          ]
        },
        {
          "Bias": 1.8919289,
          "Weights": [
            2.0363142, -1.4568698, 2.012728, -6.2116017, 4.010791, 0.89, -0.8548837, -2.1923907, 0.24615598, -2.7870545,
            -2.9025753, -1.5936445, 2.112541, -0.18674529, 1.3668973, 1.5037112, 1.3228989, -1.953733, -3.1018078,
            -4.0967884, 0.9117109, 1.9586127, -2.2643676, -1.2284485, 1.53718, -3.8424587, 1.0794935, 1.1885108,
            -0.25952756, -3.4707863, -0.09539428, 0.8124746
          ]
        },
        {
          "Bias": -0.92070526,
          "Weights": [
            1.9953154, -1.1447945, 0.023859113, -1.0746101, 1.4096754, -5.0629663, 0.5678414, 2.6956217, 0.5015962,
            -8.750079, -0.86337215, -0.26379648, -0.31021616, 2.357462, 0.14415853, -1.9840789, 0.7413721, 1.4761518,
            0.147006, 2.072908, -1.0845368, -1.2190564, 0.7650861, -1.8742847, 1.860913, -0.469982, -3.1785483,
            1.927341, 0.39930248, -3.147203, -4.3170805, -2.0918627
          ]
        },
        {
          "Bias": -0.24398822,
          "Weights": [
            -1.7182381, -0.57748735, 2.4237905, 4.9228206, -1.9219351, -0.72381306, 0.6542357, -0.91963786, 0.7026846,
            1.6686211, 0.4622076, -3.4700284, 1.7199048, 4.5811644, -0.654202, 0.8649621, 1.285049, -0.20014814,
            3.3891954, 0.2934693, 2.1671083, 0.1536985, 0.08918977, 0.34998804, -0.75642705, -1.5181247, -3.573001,
            -4.5235605, -0.32281256, -1.7071664, -1.5016364, 4.1544647
          ]
        },
        {
          "Bias": 1.025655,
          "Weights": [
            -0.8641815, 2.0708768, -3.6184983, 2.3308403, 1.809185, 0.8383153, -3.1395793, -2.1506095, 3.087944,
            -1.8883226, -2.8265834, -3.4489012, -5.491138, 2.0397704, 2.5037053, 6.7300277, 3.190732, -3.2059996,
            -0.28181112, -1.6369188, -0.323829, -4.1489315, 1.7664382, 1.1697855, 3.58649, -5.1234865, 1.1681868,
            1.7822576, 8.736172, -5.2402024, -1.9699187, -3.9367812
          ]
        },
        {
          "Bias": -0.81118613,
          "Weights": [
            3.739175, 5.010459, -5.4258585, 0.30880588, -3.9907718, 1.2200619, -1.4240233, -1.8322845, 2.7411115,
            -0.135373, -0.9624709, -3.525711, -0.78568953, -0.5264964, 4.6352267, -2.6312032, 2.2251444, 1.637845,
            -3.2001572, -1.6753461, -1.568582, -6.2409306, 0.16076112, -1.1467478, -1.8920194, 2.796514, 1.8094732,
            0.64464414, 2.5751216, -2.5056708, 0.7345245, 2.955925
          ]
        },
        {
          "Bias": -0.9830686,
          "Weights": [
            0.028042018, 0.75522566, -1.4061776, 3.0768735, 1.2236445, -2.3485384, -1.23247, -1.1822455, -0.15331066,
            0.41935724, 0.5268171, -4.469325, 2.3521972, 1.2224059, -2.3335972, 1.7008804, -1.9427811, -0.37028193,
            -1.6552522, 1.4880569, -5.6636114, -1.2294905, -0.8517738, -3.978862, -0.7840327, -7.531823, -1.8667872,
            0.22729564, -2.854501, -5.7705536, -0.5968101, 5.1287966
          ]
        }
      ]
    },
    {
      "Neurons": [
        {
          "Bias": 3.1931667,
          "Weights": [2.9089935, -4.9005013, 1.5494654, -1.8110882]
        },
        {
          "Bias": 3.590581,
          "Weights": [-7.510706, -6.3172655, 1.3805091, -0.41898185]
        },
        {
          "Bias": 0.95742947,
          "Weights": [1.2472322, 0.570492, -2.8153875, 0.69274366]
        },
        {
          "Bias": 0.2438899,
          "Weights": [-0.5058664, 1.2707713, -1.4559939, 3.3355842]
        },
        {
          "Bias": 2.4156668,
          "Weights": [0.99809384, -0.79316247, -0.39723653, 1.1483796]
        },
        {
          "Bias": -3.4637341,
          "Weights": [-0.481986, 0.5790837, 0.7397776, -0.078716815]
        },
        {
          "Bias": -2.5386457,
          "Weights": [-0.6724816, -2.910501, -1.5690256, 4.2933197]
        },
        {
          "Bias": -7.1027036,
          "Weights": [-2.6035943, 2.4131343, 1.1176364, -4.6502366]
        },
        {
          "Bias": 4.071847,
          "Weights": [-1.8709002, 1.41834, -2.337089, 2.0770364]
        },
        {
          "Bias": 1.7653686,
          "Weights": [-1.0450261, 0.6369214, -1.676928, 0.11252701]
        },
        {
          "Bias": -0.5364557,
          "Weights": [1.6427481, -0.29883808, -1.228252, -1.5460218]
        },
        {
          "Bias": 0.76887715,
          "Weights": [1.08014, 2.5230784, 3.8777077, 3.190165]
        },
        {
          "Bias": -1.6348162,
          "Weights": [-6.465484, 4.362753, 2.4652643, -2.7745051]
        },
        {
          "Bias": 3.4066398,
          "Weights": [1.8430097, 0.9858613, -0.5975764, 2.6099904]
        },
        {
          "Bias": -2.4453478,
          "Weights": [-1.2390757, 5.61518, 2.7435608, -2.5588446]
        },
        {
          "Bias": 0.032152563,
          "Weights": [0.55172694, -3.4741707, -3.8278422, -0.594597]
        },
        {
          "Bias": -5.6912203,
          "Weights": [-2.875475, -2.3433356, -0.066085935, -1.3750978]
        },
        {
          "Bias": 0.061180174,
          "Weights": [-0.6706966, -1.5878406, -0.9001917, -0.08546972]
        },
        {
          "Bias": 1.1701739,
          "Weights": [1.6096537, 0.008302674, 3.0085409, 1.000901]
        },
        {
          "Bias": 5.264197,
          "Weights": [-2.6518908, -7.8847675, 1.0131582, 1.5684371]
        },
        {
          "Bias": 0.68003654,
          "Weights": [1.1323699, -0.7902763, 0.19243869, -0.109657794]
        },
        {
          "Bias": -4.746969,
          "Weights": [-2.747118, -0.11693518, 0.6564652, 2.4498382]
        },
        {
          "Bias": -1.3364141,
          "Weights": [1.2338034, -3.6335998, 0.65069664, -0.8857374]
        },
        {
          "Bias": -4.4385343,
          "Weights": [0.28052413, -0.7032881, -0.48126364, 1.8096921]
        },
        {
          "Bias": -1.9273477,
          "Weights": [-0.14988285, -0.90606546, 0.1797865, 1.509356]
        },
        {
          "Bias": 0.5975218,
          "Weights": [0.36077303, -1.767181, 0.27942228, -2.9418736]
        },
        {
          "Bias": 1.8679627,
          "Weights": [0.42788363, 3.2031693, 1.0669641, 0.8567798]
        },
        {
          "Bias": 1.6225984,
          "Weights": [0.187572, 3.6147804, 2.19574, 0.6756052]
        },
        {
          "Bias": -3.938397,
          "Weights": [2.3768384, -2.1684074, -1.2515604, 1.1475484]
        },
        {
          "Bias": 0.1458583,
          "Weights": [3.9061732, -4.116913, -1.4374998, -2.9291892]
        },
        {
          "Bias": 3.385104,
          "Weights": [-4.3639636, 4.3659434, -2.206427, -1.025018]
        },
        {
          "Bias": -0.21276292,
          "Weights": [0.4112115, -1.920834, -0.08700156, 1.9986941]
        }
      ]
    },
    {
      "Neurons": [
        {
          "Bias": 1.4734442,
          "Weights": []
        },
        {
          "Bias": 0.5997663,
          "Weights": []
        },
        {
          "Bias": 0.439519,
          "Weights": []
        },
        {
          "Bias": 1.6704135,
          "Weights": []
        }
      ]
    }
  ]
}