{
  "Layers": [
    {
      "Neurons": [
        {
          "Bias": -3.2160516,
          "Weights": [ -2.5091393, -0.36294436, 3.8119416, -1.5193603, -7.190468, 0.5179231, 2.0284967, 0.124834836, -3.480466, 1.2936051, 2.5807967, 0.778079, -1.0657651, 1.4247987, 0.7393153, 0.88981676, 5.138991, 4.213127, -1.0439765, 4.4147, -0.14429033, -6.164895, -3.6035287, 2.6277432, -3.1068485, -3.6772318, -0.30723405, 2.2773957, -2.6741014, 1.0687339, -2.4494245, -2.2295935, -1.1843591, 4.0169783, -3.4448905, 4.9200916, 2.4761112, 3.4928305, 0.98536, 2.428491 ]
        },
        {
          "Bias": 6.3355637,
          "Weights": [ -1.3195621, 7.1055174, -6.007185, 1.7395613, 4.7530413, 0.4044296, 1.0442249, -2.1272666, 8.861665, -3.0489922, 1.8118975, 1.6537535, -2.417694, 1.8546455, -1.3530126, -2.5355434, -1.2069383, -2.5669246, -1.0679996, 0.38019213, 1.1453755, -1.9871838, 6.5625105, -0.44394034, -5.184772, -2.715465, 1.4533137, -1.3311648, 1.5841595, -2.1093912, -1.6488593, 0.2783407, -0.9289589, 0.48030996, -1.9539499, -1.2390449, 0.78767, 0.87897253, -0.37144095, -0.9915363 ]
        },
        {
          "Bias": 0.34218067,
          "Weights": [ -1.3147674, -0.121221304, 5.2012267, -0.0006738305, -4.819091, -5.227139, 2.8481367, 2.5001214, -1.2796035, 3.607174, -2.8077312, 0.9083043, -4.5715175, -2.5663557, -0.5324055, -0.63102424, 1.9111305, 5.8895903, -4.2675967, 0.72335106, -4.248138, -1.9598963, -3.062745, 3.7033179, 0.12542999, -0.42329735, 2.4226964, -2.9401886, 3.4340088, -2.893746, 0.46888697, -0.07062626, -1.2845616, 1.0970786, -0.7425808, -4.563697, 2.8340225, 0.9774287, -0.8031866, -2.1351578 ]
        },
        {
          "Bias": 2.310018,
          "Weights": [ -2.7753081, -2.4245472, -1.0440502, 0.26198986, 2.9571304, 3.131182, -3.95075, -3.1602616, 1.9825402, 0.83378345, 3.0945709, -0.60350335, 0.44886237, -0.7013519, 2.4224844, 2.2076168, 1.7863674, -5.9992948, 5.448448, -1.1975949, 1.4892075, 1.70214, -1.061291, 3.697586, 4.9046597, 3.8259509, -2.6492774, 3.1616087, 1.3491242, -1.0164225, -3.846052, 3.856332, -2.830132, -2.369975, -2.5152402, -5.2661414, 0.35571763, 0.48382425, -4.3868504, -3.7473025 ]
        },
        {
          "Bias": -1.3921964,
          "Weights": [ -2.964174, 3.132272, -0.029108644, 8.599661, 1.6388701, 1.7007003, 0.01266396, -2.3195724, 3.2531567, 3.928845, 1.4092, -0.0324893, -0.7939216, -1.2449851, -6.0219145, 3.995954, -4.764624, 0.7268707, -1.5259027, 2.516833, 0.81361437, 0.8703314, -3.3255665, 1.3594431, -3.5431945, -3.0450594, 2.6719193, -2.5125465, 3.601026, -2.0434825, -0.32751635, 5.0259914, 0.9316463, 2.948268, -3.9058166, 0.24455303, 2.0458014, 2.694931, 3.502739, 2.705286 ]
        },
        {
          "Bias": -2.4415324,
          "Weights": [ 1.2641292, -0.9187667, -4.4120674, -0.36245906, -0.5851784, -1.0222346, -2.5903378, 1.499406, -2.2783892, 1.1631569, 0.10907924, -4.590129, 5.836791, 0.99667305, -1.53229, -0.7614412, -0.75105745, -4.485784, 1.1605211, 0.2187314, -2.5097046, -0.27162027, -2.4111273, -1.170671, 1.2662084, 1.3837776, 2.6963353, 0.26379067, -1.2255759, -3.9140463, 2.8374212, 1.4335705, -2.9814358, 2.12922, -2.774874, -0.3934275, -2.587513, 1.3352791, 0.57173884, -1.7630649 ]
        },
        {
          "Bias": 1.8337138,
          "Weights": [ 1.5077903, -0.27186695, 2.0190516, -3.6835551, 0.40577888, 5.2984433, -6.4749446, 0.3463229, 3.687618, -0.86573315, 3.2721558, -3.5421748, -3.1326716, 2.9539967, -1.4096733, -0.26885295, -1.7170997, 0.17337269, -1.1524308, 8.2011595, 0.20662852, -0.74184227, 1.4269543, 2.5416572, 1.6047106, -0.8778206, -0.3387791, -1.2678298, -1.3484721, 0.6970949, -1.7798703, 4.1366014, -3.2845821, -2.2320955, -3.6147852, 1.2711424, 3.5020738, -0.97207314, -1.267484, 5.156636 ]
        },
        {
          "Bias": 7.038023,
          "Weights": [ -0.5335164, -3.63027, -3.355915, -2.4956753, 3.166544, 0.18568742, -6.400985, 3.6131325, 1.1281292, -4.4036417, -2.1812072, -2.2697508, -2.4270558, -4.501156, -0.24093902, 1.7555009, 1.0982982, -2.731136, -0.5922321, -5.425307, 2.2315197, -3.4111981, -1.4800445, 0.0016511083, -2.0804942, 1.5644176, -5.7777467, 1.0046731, 1.4807063, -1.1080403, 0.28740835, -4.799137, -3.460821, 0.5090443, -7.1338606, 5.6441135, -3.899802, 1.1071761, -0.9187, 2.1619732 ]
        },
        {
          "Bias": 0.05859363,
          "Weights": [ 5.7229104, -1.0723255, 1.2458621, -3.0427036, -2.1492815, -0.41278946, 1.8214501, -0.30172676, -1.5078161, -0.46572995, -1.804534, 4.382492, -2.3151326, -4.8421545, 1.4853106, 2.697349, 1.7901607, 0.31191766, -1.397567, 0.0003068447, 0.92860115, -1.2823923, -0.8776328, -1.1571021, 4.490087, 4.7291107, -1.3010653, 1.7817984, -5.9187694, -0.8546738, 1.1889632, 0.023753695, 1.0625937, 1.5544369, -0.2265464, 0.9100985, -3.9425817, 0.6890088, -3.5063517, -2.844788 ]
        },
        {
          "Bias": -0.049750686,
          "Weights": [ 0.69613904, 2.1177948, 1.5649141, -2.0528352, -1.202461, -3.190939, 0.04708779, -1.9182917, -0.6753117, 1.8198872, -0.8367015, -4.550537, 0.12506917, -2.4917808, 1.9086976, 2.771459, -0.33738098, -2.0930974, -6.5800877, 0.21757412, -1.7172377, -3.8142846, 10.7473545, 0.38646328, 2.0554636, 4.6139326, 1.4970344, 7.015081, 2.5130062, -1.5255445, -0.9230214, 2.0318367, 0.6284592, 1.2586533, 1.1429896, -5.107723, 3.9481657, 0.4564129, -1.1351216, -0.3074441 ]
        },
        {
          "Bias": 1.5478388,
          "Weights": [ -0.4908368, 2.4113197, -1.1783223, -4.2876925, 1.9931182, -1.7441393, -1.256056, 3.7350998, -3.0446796, 0.98175067, -4.768087, -5.150488, -5.4456215, -2.9906418, 3.65349, 3.328457, 0.92444754, 6.380164, 2.7273922, -0.41421968, 4.6989164, 1.4030664, -1.80235, -5.629594, 0.06756008, -2.8678575, -1.6885397, -4.965194, -6.1611514, -2.2790494, -0.8165247, -7.9120393, -3.1476552, -0.4355955, -0.38410974, -0.6404589, 1.3172977, 2.7737138, -1.1407363, 0.85204613 ]
        },
        {
          "Bias": -6.1688957,
          "Weights": [ 1.1032364, 0.9458717, -3.4082882, 0.19566639, -1.69042, 0.8597966, -3.0164757, 0.65264463, 0.7827519, 0.18676412, 0.7232722, 1.7086723, 0.006369427, 1.7616224, -4.294446, -1.9542955, 3.1493886, 0.49578893, 0.63065386, 3.6881242, 2.7592146, 2.2445493, -0.33200085, 1.0447044, 0.6550202, -0.18757214, 2.381639, 3.3902068, -3.431976, -0.49181598, 3.751589, -1.8403592, -5.0116835, -0.7012586, 0.6283373, 4.385373, 4.061157, -1.9932895, 1.34681, -5.289901 ]
        },
        {
          "Bias": 6.636025,
          "Weights": [ 3.1462739, -0.6003102, 0.6233418, -8.519904, -2.9759974, 0.79006875, -0.3959388, -2.8405437, -0.28621662, 4.0312815, 0.2798085, 1.055985, 2.3706217, -0.584368, -6.6510153, -1.6777616, 1.1937426, -0.07587188, -1.7543067, -2.1077294, 1.8052413, -4.345825, -0.8476877, -1.5838486, -2.1635876, -3.5632963, -0.059102714, 0.78153735, -0.5654822, -3.1733027, 1.9848702, 0.60977817, -4.7950463, 1.0301658, -1.8201711, 0.96067524, 3.392429, -0.18079412, -2.5598433, -7.9630303 ]
        },
        {
          "Bias": -1.195995,
          "Weights": [ -0.079630256, 0.2582751, 5.930573, -2.285799, 2.185616, 1.9166567, -4.991668, 4.190878, 0.6430387, -1.302984, 2.5424552, 2.4163015, -6.721537, 4.0574355, -1.0720307, -0.47637874, -1.0150583, 0.41598666, 0.23871535, -0.34156978, 0.6644841, 1.6674725, 0.38078701, 9.153857, 5.5479393, 1.1094915, 2.3850951, 1.3334199, -0.7415943, 0.35754013, 2.5847197, -2.6939545, -4.3864446, -3.105689, -0.80481756, 4.5322447, 8.329504, 1.7903898, -2.518945, 0.6514212 ]
        },
        {
          "Bias": -0.5286341,
          "Weights": [ 1.9150438, 1.6921626, -3.2014794, 2.1498923, 1.4398278, -1.979108, -3.0731614, -3.1826046, 1.4813011, -0.03275317, -0.34753373, 0.3957155, -1.7789469, 3.8117342, 0.39526418, 0.97000504, 2.1374915, 1.8804066, 0.08501595, 2.8562212, -0.33553806, -0.058728814, 4.0817533, 1.635993, -3.2758698, -1.8341416, -0.8718517, 0.3339887, -1.0820854, -1.0419376, 3.664256, 9.17399, 0.3548723, -3.14216, -0.7403493, -5.481987, 2.4590375, -1.2963312, -7.127691, 0.89848864 ]
        },
        {
          "Bias": -6.6396246,
          "Weights": [ -0.47396553, -0.7732316, -1.0947311, 4.4285593, -3.7395272, -2.3366957, -5.5508904, 1.0798746, 2.6985726, -1.2919, -0.020932198, 1.3495661, 0.036136866, 0.622746, -0.99018526, 4.1898007, -2.4060526, -1.8811785, -4.7909393, -0.83015907, 0.92186815, -1.3301262, 0.4576883, -1.7196394, 2.329808, -2.4397082, 1.5900543, 0.20282936, -6.091173, -0.30109492, 0.9803418, -2.0057924, 3.4113455, -0.35201818, 3.303299, 1.5140393, 4.4519606, -2.0298555, -4.9937606, -5.2067757 ]
        },
        {
          "Bias": -1.6349653,
          "Weights": [ 3.0068913, -1.7682407, 1.3482524, -0.7220347, -2.9465694, 3.000627, -3.186507, -1.2784199, 2.1907656, 1.6465335, -0.71132714, 1.7479594, 9.412785, 0.72510904, -0.47874868, 1.5447335, 4.853992, -1.3802369, -3.207884, -0.29166347, 1.9112469, 1.6072638, 4.668343, 1.0292828, -5.4436846, 0.89929485, 2.04467, -6.035655, 1.89778, -3.556327, 1.587024, -0.048205733, 8.905023, -2.3571088, 0.81656337, 0.7137648, 2.0804782, -4.7684283, -0.7237217, -2.5979404 ]
        },
        {
          "Bias": -2.3648968,
          "Weights": [ -1.5803796, -0.58441657, 4.775031, -1.4614139, -0.691604, 2.756868, 0.17476666, 1.9200457, -0.5741649, 2.1137266, 3.7199016, 4.4726734, -0.8825799, 2.0968707, -4.850753, -3.8066654, 0.79563355, 1.3727473, -1.5624781, 1.1978981, -3.3951685, -10.004173, 3.7266955, 1.4285228, -2.8438234, -4.879857, -2.0229664, 2.4913943, 0.2834273, -7.1259127, 2.3320808, 5.1200967, 1.4867475, 1.0430566, -5.637304, 3.202516, 0.00014549494, 0.40289798, 1.5835127, 1.1831906 ]
        },
        {
          "Bias": -3.9641788,
          "Weights": [ 3.9360275, 6.2735605, 1.7933671, 1.6065332, 8.968507, 1.2649777, -2.333634, 3.0238242, -4.8932643, -5.0192814, -0.17488408, -3.982542, 1.4066854, 1.2021497, 0.3625903, 1.7432537, 1.7052318, -2.135141, -2.2178657, 1.5712664, -3.6940632, -0.34554094, -2.2244105, 0.2279309, -3.1617923, 0.81145906, 1.2621491, -1.5906142, -0.5178394, 0.04066217, -3.0227141, 3.1008244, -0.28047645, 1.2548888, -1.4333938, -1.7808471, 1.8566498, 2.9851718, -0.74991584, 7.516442 ]
        },
        {
          "Bias": -7.8368535,
          "Weights": [ -4.6468177, 0.44556904, 7.6317277, -2.9901104, 0.8539051, -1.3380153, 0.40332723, -0.97040933, -2.7921982, -4.7296553, -4.076397, 2.4545355, -0.86433303, 5.186857, 3.2537146, -1.2767189, 2.8108733, -3.3986502, -0.8731704, -2.9832053, -1.35944, 3.0459328, 1.2756557, -0.10221389, 2.0204089, 0.071026295, -4.510636, -2.5550578, -0.32446915, -1.8271623, 1.7513628, -0.83394176, 0.2096422, -0.7636744, -3.524893, 0.2566396, -1.1805685, -1.9733776, -2.6823773, -1.4396989 ]
        },
        {
          "Bias": -1.216521,
          "Weights": [ -0.8043492, -2.9209223, 2.926126, 1.4558997, -0.2874605, 2.5767813, 3.946026, 0.15534428, -1.2667286, 0.04768938, -0.4635024, -4.244837, -2.31001, -0.4637097, 2.6242127, 3.375954, -4.9912424, -5.02647, -4.5070868, -0.17563954, 4.851359, 3.7286782, 2.316567, 3.2964644, 0.4565139, 1.254167, -0.31450137, -4.6437945, 5.3422766, 1.676018, 2.2513556, -1.3205047, -0.67199326, 2.7186375, -2.066284, 2.1545599, 8.671737, -1.7387192, 1.4945086, -5.040032 ]
        },
        {
          "Bias": 3.9090424,
          "Weights": [ 2.7319562, -0.18687063, 3.6450107, 2.5475194, 0.10580978, 3.3539581, -1.6414428, 2.8487258, -0.64211094, 1.2111094, 1.3627053, -0.9615735, -4.4376936, -3.0931747, 4.412303, -1.1506313, -2.4908361, 5.877768, 4.1352096, 0.17635123, -4.413746, -2.3747551, 1.4795043, 2.5855238, 1.5142437, 2.348946, 1.2671132, -2.746335, -2.1557555, 0.48733783, 0.15485501, -5.2515984, -2.1845827, 1.4956933, -1.8902835, -1.9724536, 0.47504598, -0.12487948, 1.7596502, -2.303742 ]
        },
        {
          "Bias": 1.4708152,
          "Weights": [ 2.213285, 5.5586886, 5.273012, -3.4604545, -1.5447975, 1.2534266, 4.39028, -0.4757473, -0.10218419, -2.038744, 3.4183106, -1.3750428, 6.393714, 0.17101997, 0.8152289, -0.9512569, 0.81390584, 2.4410641, -1.8142011, -4.0309176, -1.9118903, -0.17684746, -2.8258538, 1.1642003, -2.5552616, -3.4257343, 0.90512395, 4.5774384, -4.1044054, -1.3654319, 3.456097, -3.5694547, -3.6004214, -3.3668659, -1.6394632, 2.2854292, 1.7691035, 1.3351724, 0.7614084, 2.4460843 ]
        },
        {
          "Bias": -4.568447,
          "Weights": [ -0.35892117, 0.43799907, -1.3203281, -1.345021, 0.40825772, -1.3835897, -0.8315202, 2.6756573, -0.07355505, 1.7524385, 2.625504, 1.2960576, 3.447838, 1.9808164, -1.5927644, -0.45801115, 0.013573974, 2.0973506, 1.1149168, -6.6513186, 5.822144, -0.018966198, -4.2599382, -1.8623387, -2.5855713, 1.3952936, -5.1092105, -3.4255438, -2.6255884, 2.5283635, 2.7599638, -0.1373798, -0.19910383, 0.7134935, 0.8724153, 1.4585991, 5.545779, -5.1806107, -0.8687847, 2.713038 ]
        }
      ]
    },
    {
      "Neurons": [
        {
          "Bias": -0.3415057,
          "Weights": [ 7.788272, 3.3281002, 0.106888175, 0.13487974, 4.1804724, -3.50743, -2.5890718, 3.3773332, 7.414499, -5.4487805, 0.9927571, -2.7188241, -5.1747456, 1.4964677, 1.7982639, -3.5862126, 1.138673, 0.039789066, -0.49682403, 5.532045, -3.48515, -2.357003, -0.9840548, 3.8025398, -0.6409556, -2.0572934, -2.3601043, 1.7400106, 1.3957894, -4.9033623, 6.366058, -5.6601467, 2.19487, 2.7348585, 0.15707734, -0.47807074, 1.1085458, 0.25094205, -3.8353693, 4.82185 ]
        },
        {
          "Bias": 0.5765352,
          "Weights": [ -0.4878658, 7.3279366, 3.3727632, 5.0985317, -2.689715, -1.3102102, -3.8952045, 8.005215, 7.3658977, 0.39302313, 0.08984826, 7.1898494, -4.389152, -4.061844, 0.5965068, -1.0659591, 0.39159787, 1.5767384, -6.0646315, -0.0071682036, 1.2945216, 2.688024, -4.3568316, -3.869678, 1.4923067, 3.350643, 0.2306714, -3.7260206, -2.3921373, -2.3180933, 5.508415, 3.2828412, 0.13036466, -8.006152, -1.429529, 1.8970234, 4.43082, 0.1328736, 1.101787, 3.5463111 ]
        },
        {
          "Bias": 0.8253594,
          "Weights": [ 1.0598373, 2.1850767, -1.8331721, -4.0977373, 0.47206396, 0.37827575, -0.26475418, 0.13490665, 2.6743436, -0.10925782, -0.8404454, -0.9533992, -2.1657424, 0.65763927, 4.5213614, -1.9584842, 1.1591349, -2.813563, -2.9179971, 2.2380443, -3.8214798, -1.7695627, -2.4638152, 2.133961, -2.0604644, -5.4930377, 0.53968316, -0.4041294, 1.5755228, -2.9915576, -4.3244534, -1.7800845, -5.3191185, 1.3760055, 0.9980078, 3.2477844, 5.690366, 2.5715685, -0.72119987, 1.4811378 ]
        },
        {
          "Bias": -0.7630749,
          "Weights": [ 0.7556894, -1.1767647, 0.97064996, -2.533884, -2.0765476, -6.400362, 3.8605566, 2.660499, -1.5825727, -3.4330444, 2.1398478, 1.4437261, 1.8774679, -1.3545954, 2.3623338, 3.881408, -1.1224456, 4.075699, 4.602187, 6.832851, -0.8262483, 1.6067432, -0.008662552, -0.3893366, -0.15474099, 0.61112106, 2.5545182, -0.29566312, 1.1492747, -3.0681257, 5.209126, -1.7037015, -0.47970653, 1.1334734, -2.9411404, -2.0887837, -4.039079, -4.174889, 3.869068, -3.4246972 ]
        },
        {
          "Bias": -0.16749188,
          "Weights": [ 3.9947047, -2.0652654, -2.1628084, -3.9545314, -0.63936245, -3.742259, -1.7010516, -3.486042, 2.356562, -2.190166, -2.3979528, 0.74689496, -1.6964154, 3.867114, 2.4689448, -4.3712726, 0.5035752, -3.738678, -3.7575681, 0.65693676, -0.275145, -1.6317246, 2.7202177, -0.44476122, -1.9052851, -1.1498281, 1.4247124, 3.8230128, -3.582745, 0.8049451, -0.6832936, -4.4335804, 1.5496894, -0.47505283, 3.1327548, 1.1506686, 2.4663415, 0.2536258, -2.295601, -3.1912436 ]
        },
        {
          "Bias": -0.64157957,
          "Weights": [ -3.2661119, -2.4965987, -6.1620893, -1.2373093, -5.4862876, 2.932727, -7.1641808, -1.4931331, 4.087246, 2.934461, -0.5071175, -2.156015, 3.7177758, -1.850664, 0.14686632, -3.3394492, 0.8554794, 3.8742425, -1.4397528, 2.7793603, -3.607332, -0.28851795, -3.3974743, 1.8040383, -0.47910205, -4.3050933, -1.1599529, -0.952109, 2.3043203, 1.499115, -1.319737, 3.0778952, -0.2614206, 2.2328868, 3.2157996, -5.1036615, 3.5562646, -1.4925396, -1.3577384, -3.622335 ]
        },
        {
          "Bias": 1.476931,
          "Weights": [ -1.1464742, -0.32916135, 1.7776587, 5.099261, 0.3990676, -1.4370947, 1.1535237, 3.8235397, 4.2146873, 2.6109602, 3.8694324, -4.514502, -4.916601, -1.3313041, 2.05075, 0.5229168, -0.13188434, 1.73423, -0.88077366, -3.7020173, -4.2729588, -0.39232993, 2.7380552, 2.6708825, 2.02657, 4.2022595, -2.0610447, -0.60593235, -0.043045595, -2.101905, 0.4990248, -0.06967329, -2.8470147, -2.1882632, -4.0279303, -3.446243, 3.061623, -0.7126677, -2.3254485, -4.3152523 ]
        },
        {
          "Bias": 4.8115206,
          "Weights": [ -9.470768, -3.2985473, 4.020861, 3.514059, -4.1966534, -0.806667, 1.843003, 2.654367, 1.1477268, -1.6312101, 0.8781142, -3.1601362, -2.3441331, 1.5475945, -3.557348, 4.827488, 2.2908778, -1.083795, 0.36779714, 3.844004, 0.83000684, -5.598507, -0.6439271, 3.9991589, 0.49312758, 3.5803306, -0.24716043, 1.5734437, -3.1453755, 0.7094468, -1.2821373, -0.8427446, 0.05286166, 1.0697675, 1.8319433, 3.2017393, -3.8445518, -1.7223575, 0.28868794, 6.278942 ]
        },
        {
          "Bias": -3.1582294,
          "Weights": [ -0.72038615, 2.9963958, 2.0080662, 3.137684, -1.8866179, -1.009506, -4.8164387, -0.0650754, 2.04226, 3.4823134, -0.89016426, 4.717966, -1.9943869, 3.2343602, 5.035082, -1.7870362, 3.5219874, 2.0713003, 0.52829146, -3.4335551, 3.3863487, 0.50368875, 3.639082, -5.318836, -1.3177816, -0.9397013, -3.2132912, -4.61339, 0.5865387, -7.352968, -1.0758271, -2.8486211, -4.268347, -2.751104, -2.0068889, -0.68398654, 0.6049739, -1.1207472, -0.6110336, 2.6003833 ]
        },
        {
          "Bias": -1.2398577,
          "Weights": [ -2.818688, -2.598417, 2.9384587, -1.7649074, -1.6597226, 5.2178726, 5.790165, -1.65243, 4.5721583, -1.0902683, 1.7044902, 4.2843018, 3.5981376, 0.5410155, 2.187194, -2.2269745, 1.4923234, 7.928838, 1.2853396, 3.7955856, 0.12661166, 2.2442465, -2.5789943, -0.1988197, -6.559304, -3.9784908, -2.7175643, 1.0912268, 5.936154, 5.8433094, 5.5765486, 0.65034354, -2.1671267, 1.7844887, 0.09819785, -2.4965625, -1.0600722, -1.3583155, -2.7964206, 2.5052204 ]
        },
        {
          "Bias": -6.906166,
          "Weights": [ 1.9704899, -1.1075281, 1.5425303, 2.7097726, -1.0765183, 1.4124551, 1.3021538, 1.6312946, 0.031624794, 1.8416495, -3.340972, 4.401509, 2.0886285, 5.252271, 4.193863, 0.97976637, -1.4337248, 2.6894097, 2.0051296, -1.9685901, 5.73324, -5.494943, -0.09995288, -2.6641417, -0.8606186, 0.5420475, -0.9447427, 0.7555293, 2.214631, -1.760918, 5.1070113, -0.50916696, 1.713057, 0.4554534, -3.766644, -6.049708, 1.6620996, 1.5025854, -0.26105455, -0.995873 ]
        },
        {
          "Bias": -2.2509165,
          "Weights": [ 2.0150206, 1.5779535, 1.8149209, -0.5963078, -2.0418932, -3.5191092, 3.1537788, 1.469265, -5.9100065, 0.07526708, -1.6112161, 4.39008, 0.64349055, -2.0576146, -1.6017998, -0.3599852, 3.1291797, -0.891537, 1.0492048, -0.9045843, 3.7739139, 0.65696967, 2.744928, -1.0255563, 0.8215461, -2.0125577, 1.243165, 1.3364738, 0.025002658, -0.38642746, -1.6606923, 2.2673635, 0.14384794, 2.6732955, 0.7455576, -1.836095, -4.953679, 1.0027022, -3.2656784, -0.61187613 ]
        },
        {
          "Bias": 2.2830148,
          "Weights": [ 0.4481477, -2.4770277, -4.1756153, -6.658964, -6.9498973, 0.6348531, -3.8887079, -1.9947016, -3.824069, -0.8253628, 7.9531736, -3.8485835, 1.1895844, -0.21213341, 2.692646, 1.3690112, -1.6924798, 3.4543064, -0.44689065, 1.0141984, 1.0289558, 1.677701, -4.6881733, -1.9677958, -2.1196768, 1.6057695, -0.2568345, 10.491905, -0.7636419, -2.6504457, 8.5212755, -0.050307967, 2.2627153, 1.8237534, 0.39739382, 4.7366257, 4.7257156, 1.7145584, 6.0270576, -1.7239177 ]
        },
        {
          "Bias": -1.2919983,
          "Weights": [ 1.3872356, -5.4911203, 5.021764, 1.6885743, 3.038815, -4.978205, 3.0584393, 7.3853292, 2.0686007, 2.0372128, 3.4555178, 1.1120429, -4.797731, -2.0741525, -4.018278, 3.9535573, -5.161256, -3.2830663, 5.4573965, -2.986204, -2.9267657, -6.5307913, 1.832006, -0.7266865, -1.3060706, 2.2078614, -4.3660464, 6.7573996, -6.178571, -5.6738973, 2.9590502, -3.1678078, 3.4167519, 2.65861, 0.6564655, -0.49698985, 2.963481, 2.4212124, 1.1741114, 2.8167984 ]
        },
        {
          "Bias": -2.532703,
          "Weights": [ 0.9298461, 5.0056124, -2.710014, 2.7401733, -0.5795634, 8.913233, 1.9699383, 5.267311, 0.6867317, 0.79958373, 3.7417142, -0.32506624, -2.7874994, -2.7952304, 3.4713988, -2.1273441, 2.2059264, -1.4350604, 0.9325404, -3.575789, 2.5537665, -5.296065, 4.9804697, -0.72439814, 0.53870296, -2.1108108, 3.693942, 0.03630893, -2.6771765, -0.09329331, 2.6053998, 1.9272218, 2.8554516, -4.4961786, 3.2063396, 2.7291949, -0.8296756, -4.8264923, -0.30108717, 1.1533618 ]
        },
        {
          "Bias": -0.99,
          "Weights": [ -5.5414195, 1.516571, 1.0025158, 5.2408075, -0.24177992, -2.127116, -4.0834713, 0.3663876, -0.7375202, 0.8120922, -0.9913355, 10.673593, 5.134127, -0.18505573, -2.5724387, -1.2098792, -2.4142396, 2.1355984, -4.4005747, 1.3007798, 2.9225085, -0.6637144, 1.3026228, -1.7481818, -2.61649, -3.483247, -2.5151215, 2.082063, -5.1746244, -0.79461014, 1.1489804, -2.5872774, -3.3086376, 0.34572142, 2.0735514, -8.148919, 8.480471, -0.3416443, -1.9925857, -2.0834901 ]
        },
        {
          "Bias": -0.0006380677,
          "Weights": [ 0.39654747, -2.2897651, 0.30952632, -0.32961112, 2.8995523, -7.337667, 2.1777787, 1.6079845, 1.5601033, 6.177806, -0.4882779, -2.9289024, 1.0309268, -0.2436341, -0.73127544, 6.1012354, 0.7951082, -2.5194502, -2.441887, 6.638024, 4.3042994, -2.1473384, -2.850257, -1.5803275, 2.5373108, 1.9209163, 5.0180154, 1.7060367, -1.8975205, 1.9841549, 1.8860757, -0.4599197, -0.11735481, -4.7160134, -5.0423117, 1.7005934, -2.6740394, -2.520556, 2.1773036, 0.33459067 ]
        },
        {
          "Bias": 2.6328738,
          "Weights": [ 4.421654, 2.132465, -6.35832, -1.8745931, 6.988714, 1.7775023, 2.2982726, -7.3708806, 2.6387382, 4.0997024, -1.5163792, -1.4011731, 1.506123, 3.9741588, 2.7128332, -0.42927313, 0.6977119, 0.7909888, -1.7080085, -1.8603315, -1.6294931, 4.240437, -3.6632998, -2.7401068, -1.2249242, 4.333413, 0.89195186, 0.8867029, 1.6276364, 3.6670043, 0.9482646, 8.88904, -2.1938741, -0.5746304, -7.117809, -2.186223, -1.4381421, 1.8436527, 2.6966186, 1.8819875 ]
        },
        {
          "Bias": 0.9115802,
          "Weights": [ -2.5614884, -9.384672, 3.1712966, 4.7383647, -3.3265343, -0.12581527, -0.47590905, -2.4280329, -6.901214, 4.155316, -1.1927574, 3.1042495, -0.99464667, 0.7218072, -2.3669822, 1.3242438, -1.2318631, 0.020291865, 0.15787376, -1.0987172, -2.5505993, -0.26637983, 5.5746613, 3.0074577, 5.6587667, -1.1117113, -1.0478458, -4.0317345, 1.5268552, -0.73053426, -0.41273934, -0.35256916, 0.8984501, -5.9697046, -1.8092532, 3.7753263, -0.096173525, -2.236362, -1.8614676, -5.1293173 ]
        },
        {
          "Bias": -2.0301645,
          "Weights": [ 3.324732, -0.142683, -0.27363992, -0.5522531, -0.9604773, 1.3707782, 4.6236773, -0.39884233, 2.003894, 1.7252625, -4.3902698, 2.7556467, 1.8656781, -0.5336689, -2.3862395, 2.1091888, -3.653707, 0.13239038, -0.3578583, 2.8225594, -0.5395668, 3.536247, -0.12596369, -6.03477, 4.600611, 0.19565737, -0.8395591, 0.2900536, 2.0679357, 2.4306273, -3.9019032, -2.1692557, -5.147646, -2.8966203, -0.24336088, 0.8960414, 0.7339322, -1.1936803, -5.9220014, 4.6779127 ]
        },
        {
          "Bias": -5.9460416,
          "Weights": [ -3.2657564, -1.3556539, -0.02938819, -0.65629196, -2.8192248, -1.9628406, 3.2868934, 1.8404353, 1.4527235, 2.3332133, 2.374228, 0.2070328, 2.4475, -1.5436834, -3.925432, -1.0764347, 1.4918759, 4.1079197, 2.2935798, -6.2919073, 0.22509903, -2.430811, 2.7754164, 1.0445163, -4.3849235, -1.9097846, -1.9986868, 0.4930079, -0.91350955, -0.37468946, -0.9606048, -0.23251936, 1.8570517, 1.7965482, -2.2139962, -2.9455342, 6.5287848, 1.0708778, -6.1232505, -5.261584 ]
        },
        {
          "Bias": -2.37777,
          "Weights": [ 2.2679236, 0.62808156, 2.4636304, -3.9357946, -1.0527692, -1.4357259, 1.7460355, -0.9333128, -0.41103217, 1.712837, 1.7979882, 6.818286, 7.0755186, -5.782155, 2.428047, 1.219062, 0.31482065, 1.962737, 1.8310148, 5.133279, -3.481612, 0.5115048, -1.415657, -2.6394112, 12.601983, -5.043766, 1.2205772, -1.1315498, 1.6025934, -4.027207, -0.5872936, -1.6976938, -2.7820144, 2.110093, 1.321507, -1.2458549, -0.10694605, 0.96471584, -0.7200271, -0.29295194 ]
        },
        {
          "Bias": 0.6500006,
          "Weights": [ -6.12588, -1.9005647, 1.0035108, -6.567279, 2.0243511, -3.4117365, 4.3661556, 5.6754007, -6.756507, 2.2354171, 1.461833, 2.69716, 0.1323126, -4.643838, -0.5970156, -9.313662, -3.502859, -1.2633593, -1.2440406, -1.2491155, 0.3221277, 1.1433245, 1.956349, 0.9633459, -3.4368303, -0.35449585, 0.2656412, -1.1423724, 4.171737, -7.482701, -2.0227373, 1.3534939, 1.7233133, -1.68356, -0.91658545, 1.4341271, 0.2653656, 1.5869336, -0.10020292, -0.015222311 ]
        },
        {
          "Bias": -1.1966189,
          "Weights": [ 1.5502081, 1.1736968, -3.6630468, 0.98948395, 1.156699, 0.3759936, 0.6252236, 5.311153, -0.349275, -3.2851727, -3.41784, 4.5265975, 0.046043158, -2.1088436, -0.4805252, 0.21978778, -2.1905794, 0.29507455, 0.4139623, 1.2894493, -1.5179837, -3.1414113, -0.45674863, 9.810602, -0.26706928, 0.5450405, -3.0684829, 2.2159863, 3.2800844, -2.409082, 0.1328283, -0.6351303, -2.7143366, 2.1200607, -4.1513567, 1.5437926, 6.263755, -5.2642264, -6.6655493, 2.9344425 ]
        },
        {
          "Bias": 2.0987384,
          "Weights": [ 0.052690268, 0.743528, 4.3002286, 3.2271402, 0.86106, -0.9644155, 1.4955889, 2.1379716, -4.916684, 4.5904365, -1.8114984, -3.2124724, -6.7446556, 0.51975703, -0.8639777, 0.17164451, 0.19418597, 4.25049, -0.60682315, 1.803525, 0.07092631, 1.4797231, 4.1525064, -3.4091127, 3.9802442, 2.717049, 2.9320157, 4.368579, -1.2154231, 4.9679875, 3.489336, 1.6051557, 3.067656, 1.9466205, -3.3510454, 2.1793895, 0.50293076, -1.3290049, 2.5775743, -1.4741954 ]
        },
        {
          "Bias": -0.8646208,
          "Weights": [ -1.3791268, -4.974561, -0.80516636, -1.2084577, -1.1330388, -2.376962, -2.1705878, 2.5291083, 3.8990557, -2.9901736, 2.6816292, -1.1905191, -1.1984317, -0.22736403, 4.329369, -3.0578797, -0.6730887, -0.8029622, 3.7313972, -4.741952, 6.0354233, 4.410462, -2.9496732, 0.15971911, -2.1601636, -1.1463804, -3.473998, -1.2699474, -0.3739804, 0.24483275, -3.8202875, -1.445329, -5.590994, -0.5839333, 3.220491, 0.07506424, 3.004349, -0.8178221, 4.242665, -4.5013995 ]
        },
        {
          "Bias": -3.207877,
          "Weights": [ 3.1564376, 1.6148953, 0.5363868, -6.080637, -0.03955543, 0.9193672, 0.3482384, 0.22165304, -0.48802578, 6.908255, 3.6402888, -1.2529551, 2.684587, -3.5550585, 0.2862088, -3.4359374, 3.9288633, -4.1829057, 0.42604434, 4.98746, -1.0939987, -0.36535847, -2.7218578, -1.2187011, -3.219545, -1.7226907, 5.6419497, 1.6233857, 2.8544712, 2.9409163, -4.20953, -3.2779465, 1.6055675, 1.4616119, -0.2424961, 1.8817489, -0.46631956, -4.4757476, 1.4806907, 1.816442 ]
        },
        {
          "Bias": -1.6286488,
          "Weights": [ 2.0845172, -1.4900519, 1.6216903, 0.8330536, -2.2977176, -0.3093359, 2.4374778, -0.11645156, -0.6387764, 0.4536251, 0.7053583, -1.7744111, 8.0071125, -0.056940004, 1.4593724, 1.4972227, 1.9061565, -6.560216, 1.1356034, 0.24077281, -1.61153, 2.7152872, 1.8096136, -1.8384898, 0.5015101, -3.1525626, -1.910167, 2.2516944, -1.7610414, -3.3503397, 1.031853, 1.6130477, 2.134824, -2.2558284, -1.0614026, 0.4951921, 3.6784496, 0.39506185, -3.699877, -0.7394991 ]
        },
        {
          "Bias": -2.2075193,
          "Weights": [ -2.703064, -6.614292, -5.699048, -2.9203775, -3.8887417, 2.120006, -2.2755408, -8.3657875, 2.4370253, 0.75563514, -8.589814, -0.64796305, -0.48465425, 0.13709182, 4.7388945, 0.12271029, 5.2189183, 3.1616888, -6.1396675, 5.933636, 4.6534314, 4.642299, -2.1390703, -1.2457588, -3.5878398, -1.4690835, -3.4799738, 3.1408486, 0.20011976, 2.9773097, -4.6713624, 2.2147079, 0.71292835, 1.4244261, -0.82047445, 1.4862872, -0.6814201, -7.760069, 1.4031453, 1.6708312 ]
        },
        {
          "Bias": 1.2523654,
          "Weights": [ 2.73879, -2.2725258, -2.5472758, 1.8954301, 0.9507154, -3.865778, -1.5625727, -3.7925687, -2.541975, 1.939454, -0.9045517, -3.204773, 3.4538727, -4.6070213, 0.4965114, 3.0346935, 3.7323313, -4.263071, -2.90173, -1.2382275, -3.0673292, -0.3445683, -6.2355328, 0.40249223, -1.292722, -2.5347936, 5.4846745, -1.1181475, 0.18041962, -2.6185627, -1.5271353, 3.545702, 2.961068, 3.318706, 0.14973551, -1.2267139, -1.574561, 2.4774323, -7.4348183, 1.8465533 ]
        },
        {
          "Bias": 0.3658577,
          "Weights": [ -1.0066435, -0.873096, 0.46342832, -1.9207246, 3.415951, -0.99829453, 1.101265, -2.1376398, -1.3441892, -1.9181107, 1.5364869, -4.785408, 4.857738, -1.9532926, 2.0149539, 1.7446191, 0.25364804, -5.240557, -2.3868651, -1.0989364, -2.225875, 4.563251, -1.5028559, 1.3616816, 5.776998, -1.945042, 3.6473606, -2.4141872, 4.8433104, 5.878047, -0.31519395, -0.9920664, -6.445793, -0.23778827, 0.3544985, -0.8579047, -0.657097, -1.891665, -0.7898897, 7.1562004 ]
        },
        {
          "Bias": -1.6982126,
          "Weights": [ 2.6088858, -3.9191818, -2.962778, -1.5260566, 3.234735, -0.45972848, 1.8169618, 4.172205, 4.3162985, -0.5858378, 1.0597663, 2.2829764, 6.5945697, 0.04046601, 3.5004425, 1.1722311, -2.2259848, 0.51571643, 0.1961456, -2.0295308, 2.3713477, -2.6918142, -1.1145849, 0.587265, 4.2679353, -2.3897805, 1.1132846, -1.9578323, 0.29857036, 4.963699, 0.045259267, -3.5466208, 4.0438986, -1.7053856, 2.7463682, -2.6969478, 0.06856239, -3.2249665, 4.3108797, -5.033153 ]
        },
        {
          "Bias": -2.726323,
          "Weights": [ -3.430154, -3.587575, 4.9947386, -2.8342106, 6.268914, -0.9392772, 2.2544413, 3.9036613, -4.6704965, -2.53791, 1.0775077, -1.0845951, 3.725201, -1.695696, 1.9694515, -2.6676798, 2.1985924, -7.499309, -2.0555322, 0.1136148, -3.9131956, -3.3327193, -1.9195306, -5.8917403, -3.3020806, -2.4689124, 6.7651815, 1.9884388, -2.0895758, 0.8763866, 0.15073487, 0.78865516, -2.7141178, -4.6283636, -1.5162064, 2.013587, 2.4763136, -0.76421434, -0.027660549, -0.8370555 ]
        },
        {
          "Bias": -0.67870986,
          "Weights": [ 1.5054832, 0.6728748, 3.8081994, 4.831967, 6.993358, -4.920804, -4.5732145, -0.585489, 0.22015047, 1.6386105, 4.6367054, 3.94523, -5.1483154, -0.10503447, -1.4153714, -2.14755, -3.2898679, -2.3809962, 0.7462131, -0.7135935, -2.2473278, 0.4603672, -3.4905305, 1.9696897, -0.6340003, -3.0525625, 4.5201964, -1.1067305, 0.7016002, -1.6698246, 2.5688853, 3.4752202, 3.8001556, 3.114492, 2.371068, -2.7207413, 3.9786663, -2.7307696, 0.42190146, 1.0551243 ]
        },
        {
          "Bias": -2.6603916,
          "Weights": [ -0.4072941, -1.2416224, 5.964848, 0.16325375, 0.5741105, 4.0941486, 0.040991545, 0.4390574, -0.7655902, 0.96673167, 2.8988035, 4.457787, -1.1971354, 0.6764419, -1.0915271, 1.6474545, -6.026195, -2.3609245, 0.3324151, 1.2727683, 4.039876, 0.7380707, -2.2546551, 3.3395839, -3.1390257, 1.1616492, -2.8457303, -4.971319, -1.9696376, -4.8628426, 2.7227335, 6.4028473, -6.6284747, -4.224899, 2.1381495, 0.18249965, -0.5248338, -0.5541565, 1.2556479, -0.20215195 ]
        },
        {
          "Bias": 0.6138505,
          "Weights": [ -0.4447303, 0.43852556, 3.1182485, -4.0489626, 3.94342, 0.5262953, 2.6150842, 2.5105536, -3.5276895, 2.5353136, 0.15868688, 0.9656837, -1.632544, -2.236937, -0.15577781, 2.3677468, 3.5885675, 1.320735, 0.04043731, 1.0012493, 3.0510287, -0.64465225, -0.5067177, 3.6145468, -3.003848, 0.7186959, -1.8749931, 6.014776, 4.9950495, 3.2704396, 2.3749824, -2.3756933, 2.5849774, 2.970685, -7.744321, 1.064575, 2.338334, 0.2793642, -5.0022807, 1.9511912 ]
        },
        {
          "Bias": 4.5124,
          "Weights": [ 2.6004496, -1.8777468, 1.197392, 2.4184427, -1.784075, -2.1655073, 2.139809, -3.5248373, -2.4513588, -2.0101204, -1.349363, 2.9979553, 2.9498541, -0.45220357, -2.5730922, 4.1245503, -3.3498104, 0.30813912, -3.3612475, -1.9665704, -4.0372024, 0.5992823, -2.7570786, -4.143985, 2.7836585, 0.756389, 0.32185602, 1.3339713, 2.364832, 3.955066, -0.069322675, -5.850274, 6.438803, 1.661843, -3.5802422, 0.59270155, -3.8100786, 2.8443213, -4.1143827, 2.831643 ]
        },
        {
          "Bias": -0.3811462,
          "Weights": [ 5.9977574, -1.0814075, 1.73563, 1.6835003, 1.9326892, 3.4018793, -3.2725813, -3.0413575, 1.4382259, 2.9651003, 2.3281302, -1.7896084, 4.9163847, 1.7035489, 3.0324686, 0.00017786026, -4.6172185, -2.880946, -0.7595631, 1.5393974, -2.9283085, 3.3553224, 0.3855611, 5.608237, -0.8211566, 1.4650633, 3.4176278, 1.8553493, -2.9445906, -2.4642415, -1.9913579, -4.5785832, -4.1794257, -1.6343396, 0.98919725, 0.12619835, 4.1903625, -2.913475, 0.11765899, 1.0740736 ]
        },
        {
          "Bias": -0.4766015,
          "Weights": [ -1.9740715, 1.9903418, -0.019071892, -0.084794074, 0.66036934, 0.60287213, 4.06274, 0.121160746, 1.3244584, 0.6774876, -0.116037875, 0.44214186, -1.1612048, -6.096892, 0.40248907, 0.111079276, 3.0299623, -0.3446656, -1.9975497, 0.9028362, -3.776996, 3.4205086, 2.419313, -3.4324994, -3.1733007, -1.069205, 2.2442567, 1.6747222, -0.58880305, -5.9995227, 5.6521397, -2.764138, 2.538043, -1.833359, -3.4257882, -0.9236666, -3.089344, -1.1182165, -2.077715, 6.0889406 ]
        },
        {
          "Bias": 0.3685487,
          "Weights": [ 2.0025413, 2.691939, 3.269334, 1.4442582, 1.0536227, 0.059056357, 2.112364, 1.3023378, 1.1084381, -0.69871426, 0.86073965, 3.9721522, 1.7433101, 6.035177, -2.168581, -2.4971106, 3.8530304, 0.54970264, -4.6384344, -3.4285576, 2.9341764, -5.4958773, 6.4654307, -0.22762728, 1.2654879, -5.6036987, 1.1054026, -1.8029735, -1.206759, 2.3940773, -4.135011, 2.2684634, -2.7602255, 4.2087846, 0.23236859, 0.53553385, 0.5576204, 6.4500813, 1.082404, 3.3293693 ]
        }
      ]
    },
    {
      "Neurons": [
        {
          "Bias": 3.865364,
          "Weights": [ 2.2685971, 0.74849015, 2.6431098, -0.25342593 ]
        },
        {
          "Bias": 0.2394774,
          "Weights": [ 1.5092, 1.5156736, 0.3844114, -3.984994 ]
        },
        {
          "Bias": -0.5531403,
          "Weights": [ 5.481644, 2.665851, 2.1391616, 2.1160884 ]
        },
        {
          "Bias": -2.7903156,
          "Weights": [ 2.1438382, 1.1386843, -1.0280223, -0.42285115 ]
        },
        {
          "Bias": 0.46731046,
          "Weights": [ 2.0268, -0.6462714, 0.96402836, -0.473239 ]
        },
        {
          "Bias": -2.377593,
          "Weights": [ -0.28098366, 1.5927073, 8.43623, 1.4938731 ]
        },
        {
          "Bias": -1.5558647,
          "Weights": [ -1.797026, -0.518404, 2.1448452, 8.798392 ]
        },
        {
          "Bias": 3.2039251,
          "Weights": [ 4.958684, 2.1778708, -2.7707846, -1.5289489 ]
        },
        {
          "Bias": -1.8321244,
          "Weights": [ 0.8421134, -1.929282, 0.39151978, 0.9932191 ]
        },
        {
          "Bias": 3.7965415,
          "Weights": [ -1.3205484, 3.9803514, -3.134808, 3.7268407 ]
        },
        {
          "Bias": 3.099923,
          "Weights": [ -1.1220889, 2.8768454, -2.211138, 2.2518718 ]
        },
        {
          "Bias": -2.9156275,
          "Weights": [ -2.0135407, -2.8589697, -2.5596714, 0.37566945 ]
        },
        {
          "Bias": 3.5303228,
          "Weights": [ -0.36918634, -0.104580164, 2.3526337, 5.2798376 ]
        },
        {
          "Bias": 1.7343491,
          "Weights": [ -0.5480138, -2.0949025, -1.6762736, 0.8611176 ]
        },
        {
          "Bias": -5.748888,
          "Weights": [ 2.4587288, 0.5934074, 3.9964569, 6.6063623 ]
        },
        {
          "Bias": 1.0049291,
          "Weights": [ 0.3917632, -3.1457732, -0.045027137, 2.526542 ]
        },
        {
          "Bias": -1.0812142,
          "Weights": [ -0.1515755, -0.96715367, 0.28253534, 0.16601324 ]
        },
        {
          "Bias": 1.1900405,
          "Weights": [ -4.148155, 6.5544457, -1.0604968, -0.81648 ]
        },
        {
          "Bias": -2.9573963,
          "Weights": [ -4.3106284, 0.08582437, -1.4861706, 3.0483608 ]
        },
        {
          "Bias": -3.6979895,
          "Weights": [ 3.1092544, -1.9713292, -5.450466, -2.9119678 ]
        },
        {
          "Bias": -4.2574573,
          "Weights": [ 1.9626746, -2.8759823, -2.5324981, -0.15439963 ]
        },
        {
          "Bias": 4.526346,
          "Weights": [ -3.1010532, 3.9521687, 1.708094, 0.103658855 ]
        },
        {
          "Bias": -1.4719965,
          "Weights": [ 2.598749, 0.76664245, 4.0232434, -3.430742 ]
        },
        {
          "Bias": -0.9561885,
          "Weights": [ 0.9196861, 2.1596875, -2.089023, -1.8078828 ]
        },
        {
          "Bias": 5.6400537,
          "Weights": [ -0.37939292, -1.3354813, 0.8527719, 0.11216538 ]
        },
        {
          "Bias": 2.2938564,
          "Weights": [ -0.73863244, -6.4894743, 1.8347776, -0.27708197 ]
        },
        {
          "Bias": -0.9309764,
          "Weights": [ 5.056718, 1.0983057, 0.7088611, 1.1730766 ]
        },
        {
          "Bias": -3.4282255,
          "Weights": [ 2.325835, 2.6182935, 0.62019783, -1.1414769 ]
        },
        {
          "Bias": -3.4164743,
          "Weights": [ -2.9743667, -0.25836325, 3.6893344, -4.957883 ]
        },
        {
          "Bias": 2.6115305,
          "Weights": [ -0.20583272, -5.635841, -0.12872851, 1.4591653 ]
        },
        {
          "Bias": 2.862339,
          "Weights": [ -3.0612915, 0.5056429, -5.939272, 1.7403965 ]
        },
        {
          "Bias": -3.9692569,
          "Weights": [ -3.06818, 1.5718422, 2.881747, 3.3685722 ]
        },
        {
          "Bias": -2.54951,
          "Weights": [ -1.6115363, -3.3723896, -0.42302454, 2.5723503 ]
        },
        {
          "Bias": -2.531764,
          "Weights": [ -3.674564, -1.1758709, 2.2185748, -3.3853147 ]
        },
        {
          "Bias": -3.839072,
          "Weights": [ 1.4164546, -2.6320395, -0.8416245, 1.2325857 ]
        },
        {
          "Bias": 1.3566201,
          "Weights": [ 4.615411, -6.931533, -1.7608798, -0.9401299 ]
        },
        {
          "Bias": -2.2185,
          "Weights": [ 4.200857, -1.5005462, -2.0144453, 0.5236912 ]
        },
        {
          "Bias": -2.0836613,
          "Weights": [ -2.1277792, 1.9204707, -3.5514007, -4.9757614 ]
        },
        {
          "Bias": 0.9072893,
          "Weights": [ -2.2795289, -0.11444548, -2.813489, -0.33102047 ]
        },
        {
          "Bias": 2.1314147,
          "Weights": [ -2.5990396, -1.3382428, 3.9909444, -0.5659321 ]
        }
      ]
    },
    {
      "Neurons": [
        {
          "Bias": -2.986691,
          "Weights": []
        },
        {
          "Bias": -0.89107394,
          "Weights": []
        },
        {
          "Bias": 0.9732374,
          "Weights": []
        },
        {
          "Bias": 0.72439283,
          "Weights": []
        }
      ]
    }
  ]
}