{
  "Layers": [
    {
      "Neurons": [
        {
          "Bias": -3.0787113,
          "Weights": [ -0.66249806, 4.9889107, 2.2970347, -1.0558922, -0.3334503, 0.07495871, -0.050038815, 0.5909496, 1.9262614, 0.7805357, 1.1752435, -4.923617, 0.28295362, -3.5192468, -3.7902627, 1.6817813, 0.030456543, 1.0598525, -1.214794, 2.9144182, 2.0949411, -3.157455, 0.99157447, 7.351811, -0.017053366, -2.005613, -0.022922918, 0.27777082, 0.5931526, -3.9016628, 0.60759616, -1.2472782 ]
        },
        {
          "Bias": 4.607896,
          "Weights": [ -0.066958904, -0.2583083, 0.048174262, -1.7406049, -0.45598567, -1.2774132, -2.779724, 1.1527951, -1.2636442, 2.1615143, -1.3764269, -2.0889227, -3.591294, 1.796149, -3.0906467, -1.4709773, -2.0029767, 0.021643996, 2.4597301, -0.31257194, -1.4867383, -0.21447062, -1.7555698, 0.26856288, 1.4363766, -2.2745829, -1.1655933, -0.5798134, 2.5271704, -1.7853525, 2.1958265, 0.31217957 ]
        },
        {
          "Bias": 1.5364102,
          "Weights": [ -0.13988072, -1.5153018, -0.3207698, 1.0423732, 2.54239, 0.51616985, -1.7386215, 0.057290018, 0.13227269, -0.90628594, 3.9380608, 1.3858657, 1.4917866, 0.30821234, -0.81398374, -1.3781009, 0.93375766, -0.14586186, 0.7010875, 0.68179774, 0.9668513, 1.9511154, -1.1030002, -2.1307092, 2.796605, -0.9717602, -5.2397966, -0.59446824, -1.1479954, 0.24024904, 0.39890808, 1.2428583 ]
        },
        {
          "Bias": 4.257692,
          "Weights": [ -1.4975064, -0.74509096, -1.3518914, 0.24844575, 1.0620964, -1.8486621, -1.0199424, 0.18808527, -0.3501598, -1.7270144, 0.50249994, 2.2094526, -0.06724155, 4.023364, 3.029722, -0.7445539, 5.143559, 0.01, 2.5745792, 0.7875752, -1.7215234, -1.1526134, -0.053301573, -0.36682904, 0.34322828, -2.025216, -1.4502621, -5.7365522, -1.807334, 4.0665193, 3.1780367, -4.3956842 ]
        },
        {
          "Bias": -0.79417956,
          "Weights": [ 1.0907387, -3.7026505, 1.777684, -0.9372314, 0.17682934, -0.3261582, -1.5137718, 1.176255, -0.9024229, 0.6659283, -0.105991066, 2.1087923, -4.0261326, -1.4104812, 0.19493747, 3.407151, -0.23545223, 0.6872504, 1.1438892, -0.11856985, 0.4029322, 1.2516091, 2.91922, -1.0276313, -1.6001959, -3.357686, -1.6402407, 1.5956421, 3.2069352, 0.5202917, -0.76024646, 0.009756783 ]
        },
        {
          "Bias": -1.5362322,
          "Weights": [ -0.39925656, 0.8494719, 1.4055266, -0.81981605, -3.7939951, 0.91651654, 3.3911486, 1.5976481, -0.22722483, -2.4388852, 0.044564664, -2.5201552, 2.0915856, -1.1471767, -0.13423967, 2.2010915, 2.6809175, -1.4673107, -0.03505054, -2.082093, 1.7620986, 2.4361644, -3.300006, 0.45395756, -1.1673784, -0.4465828, -5.646519, -0.49099767, -1.532625, 1.1184245, -1.2319294, 1.6307046 ]
        },
        {
          "Bias": -2.663878,
          "Weights": [ 0.5964728, -2.7780738, 2.3846955, -4.69479, 0.2034033, -3.071636, -5.5027003, 0.5641173, 0.057413578, 1.9141941, 2.3192487, 3.114634, -1.223067, -2.9618833, 0.39618343, -0.5965543, 1.2015121, 1.3670347, -1.5968229, -1.35674, -4.534691, 0.9157344, -3.2973452, -0.1098032, 1.9321665, 1.5592141, 6.126021, 0.9094939, 0.1766457, -1.3535376, -0.17, -2.2006416 ]
        },
        {
          "Bias": 0.05868262,
          "Weights": [ -2.4756951, 2.5274363, 1.1644039, -3.1579256, 0.9789793, 1.304483, -0.68759763, 1.346272, -1.3721453, -0.77823806, 1.7721744, -1.1688306, 3.0528896, 2.8211508, 3.077207, 1.5691773, -0.1447367, -1.9799587, 1.7514243, 1.6147736, -0.5303143, -0.6735698, 1.4912679, -0.27244133, 3.3612933, 2.8872638, -1.5212483, 1.8173218, -4.2539105, -1.3006258, -0.035782754, -0.2587986 ]
        },
        {
          "Bias": -2.652793,
          "Weights": [ -2.0053284, -0.5381199, 0.4627776, 2.6131568, 0.9066379, 0.63822305, 1.5052516, -1.1411217, -0.93274707, 1.2596886, 2.436114, 2.2641077, -0.483334, 3.9565349, 1.7709188, 2.028296, 3.3010523, -2.0451174, -3.3121185, -1.4994766, 1.5758989, 2.8730896, -4.9640803, -2.678608, 0.48080087, 0.362072, 1.256191, 0.91369987, 2.368053, -0.10937771, -2.8633122, 0.0047353506 ]
        },
        {
          "Bias": -0.0994252,
          "Weights": [ 0.7714737, -0.49272922, -3.0019743, 3.3445086, -1.0313131, 0.87173855, 1.9374655, 0.4175532, -2.3200057, -1.5463946, -0.20478511, 2.0160725, 1.2948596, 2.9948306, -0.036361694, 1.8315164, -1.8100256, 5.116545, 1.308424, -1.3061432, 4.2463355, 0.27670503, -2.226907, -2.0274696, -0.74848497, -0.88089657, 2.672635, 2.33746, 3.0291889, 0.8250763, -0.5549284, 0.7228889 ]
        },
        {
          "Bias": 3.594026,
          "Weights": [ 0.67884386, -0.37543702, 1.0304716, -0.72257984, 0.21555768, 0.7271449, 3.6621585, -1.467571, -2.2268536, 0.082270026, -0.45209688, 0.107943535, -0.9918099, -0.748793, -0.8370312, 1.0325642, -1.5721977, 1.60167, 0.2880946, -6.584496, -3.1462963, -0.9874985, -3.7107906, -1.4413106, -1.6184094, -3.9246817, -1.4307483, 0.9311117, -0.17128296, -0.31663316, 3.488369, -0.7589675 ]
        },
        {
          "Bias": 1.9715331,
          "Weights": [ -0.55024886, 1.0356073, 2.4542828, -0.7772506, -3.2464976, -0.9486919, 1.7998998, 0.6345707, 1.5411556, 3.068812, 0.49355787, 0.846359, -1.1016387, 1.4952759, 4.815789, 0.48379192, 1.0546811, -2.102775, -0.8751664, 0.37650153, 2.8975003, -0.5882061, 2.3603034, -1.5887247, 1.8817853, -0.6570912, -4.4281425, -0.6, 3.0126417, -2.8197086, -0.21779406, 0.29652834 ]
        },
        {
          "Bias": -1.3375893,
          "Weights": [ 1.2500858, -2.803291, -1.3058664, -1.8165265, -2.4207602, -0.10904407, -3.8328779, 1.0375593, 0.5491438, 1.0549111, -2.1757772, 1.3563597, -0.15547729, 1.5933299, 1.2124524, -1.9123954, -1.8099679, -3.1292539, 0.16795358, 1.8420901, 1.3371363, 0.525529, -1.153867, -0.4955289, 1.4560735, -1.7637115, 0.831686, -3.8972564, 1.9454665, -1.7276924, -2.4871147, 0.46486396 ]
        },
        {
          "Bias": 2.1639383,
          "Weights": [ -1.6901529, -0.6451558, -2.0489752, -0.8054566, -4.445679, 1.0416069, 0.35515842, 0.45001516, 0.7919886, 0.64446557, 1.1650119, -2.7612157, 2.2554083, 0.5242221, -1.8884254, -4.0845942, 2.9122033, -0.41876864, 2.4218626, -4.4018917, -2.1553223, -0.1400857, 0.60959035, 4.8074346, 2.1514926, 3.4710467, 0.22202945, -0.07, 0.24440597, -0.49905843, 1.5351185, -4.4680834 ]
        },
        {
          "Bias": -2.6037602,
          "Weights": [ -2.8923368, 4.8342824, 3.083665, -3.938383, 0.9879029, 0.70356333, 1.2237471, -3.7231956, -2.3865366, 0.44233334, -1.7517447, 2.827467, 0.7013266, -1.1573901, -5.107263, -1.9917638, -3.8909698, 2.1651359, 0.1597876, 2.540881, -0.19923067, 0.29941422, 0.90705454, -1.0283382, -1.046638, 0.32682016, -1.5836298, -0.5082648, -2.675274, 5.2144165, 0.93361974, 0.884095 ]
        },
        {
          "Bias": -3.6693997,
          "Weights": [ 0.0005431771, 1.1267948, 0.41283453, -1.3568091, -0.31915486, -0.1683051, 1.2659693, -1.064689, 0.14, 1.5484432, 0.6316486, -1.6365192, 0.8480684, 5.2009463, 2.0289915, 2.8221328, 1.2884634, 1.1788384, 1.1976786, 1.8387392, -1.1282054, -1.6398029, 3.2366133, 0.77631354, 0.23721576, -0.027609795, 0.45434302, 1.3808879, -2.7938066, -1.434303, -1.0246259, -2.1829681 ]
        },
        {
          "Bias": 1.2641509,
          "Weights": [ -0.96734226, 0.80195475, 4.9115353, 2.6956816, 1.8325863, 0.442809, -2.2522664, 0.014493801, -0.1152831, -4.5332317, 4.5304747, -1.236395, 0.53509045, -2.4982378, 0.75205284, -1.3786565, -0.7275114, -2.6142845, -5.001714, -1.3117422, 4.566362, 0.3272709, 0.8402195, -4.0507026, -2.1323497, 0.15108669, 0.46201974, 0.22011802, 3.6496596, -2.2977757, -2.5231988, -2.5124767 ]
        },
        {
          "Bias": 2.0175805,
          "Weights": [ -1.0806657, -0.23593742, -1.25293, -0.8792639, -0.23313951, 0.045077085, -3.5852005, -1.5514383, -3.797626, 1.8209001, -2.189221, -3.0568304, 0.9891022, 3.304405, 0.68849915, 1.105974, -1.3331549, -0.80974835, 1.7582976, 3.3295975, 3.5402064, 1.6413586, 0.76707983, 0.10545325, 1.7778803, -1.3205134, 0.05, 0.9479393, -0.7468366, 0.7227397, -0.99918735, -3.4948356 ]
        },
        {
          "Bias": -1.6631858,
          "Weights": [ -0.2327353, 1.5380509, 1.8399091, 3.8011575, 1.2570891, -0.6272434, -6.083636, -3.788108, 0.3415482, -0.24464715, -3.6014345, 3.7140138, 0.7577337, 1.4096632, -0.14789052, -2.7578766, -0.06385219, -0.82149345, -3.130634, -0.7683703, -1.9147977, -3.0384989, -0.61, 0.18935633, -1.5106648, 0.121439785, 0.66748345, 1.6632721, -1.0707836, 0.20323408, -0.67713404, -2.9695244 ]
        },
        {
          "Bias": -1.4276785,
          "Weights": [ -1.0185906, 1.8074876, -0.34829044, 0.19772403, -1.1109565, -0.66109073, 2.5103743, 0.5317565, -1.3634684, -0.7034545, -0.56171995, 1.9835129, 1.195234, -1.0650536, 1.4688673, -0.27711338, -2.8022366, -4.0836115, -0.6293813, 0.210875, -0.7039287, 0.86614674, -7.069248, -3.789473, 0.14748323, -2.0375009, 1.6348655, -0.8, 0.05020252, -4.4257755, 4.767552, 0.40145355 ]
        },
        {
          "Bias": 0.9883379,
          "Weights": [ 0.9591795, 4.0599756, -4.568041, 2.4558005, -1.2472501, 0.4925784, -1.4681046, 2.7276611, -2.482579, 0.95419025, -1.2244744, 1.4093527, 2.5857673, -0.7278472, -4.2938066, -2.2212608, -1.3711447, 2.4484718, -0.90513384, -1.6803498, 2.1097047, -0.676488, -2.0155952, 0.21202803, -0.41669565, -0.3617692, -1.681972, 0.93899095, -0.95, -0.7109935, -0.71740925, 2.9527183 ]
        },
        {
          "Bias": 2.51671,
          "Weights": [ -1.5565113, -0.5325402, -0.8782041, 0.76088953, -1.9498852, 1.7595066, 1.9573804, -2.4080768, -1.0856776, -0.44872952, -2.3816078, 0.09782897, -0.10150312, 1.9569409, 2.1393464, 2.4516175, -4.859417, 1.6387162, 2.7471256, -0.9064055, 0.294407, 1.3566201, -1.1170115, 0.18, -0.5968247, -0.061152548, 0.21847206, -4.1856213, -2.2229967, 4.6632395, 1.3469772, -3.149723 ]
        },
        {
          "Bias": -1.7384832,
          "Weights": [ 3.0649538, -1.6193548, 0.23466542, -2.5950017, -0.25755775, -0.10425985, 1.4500712, 3.2710285, 3.992272, -1.6824476, 0.8822446, 5.134071, 1.5080107, 2.2784219, 1.2544686, -2.0949087, 0.23979786, 2.62609, -0.67670214, -0.7939043, 0.59964216, -0.26909965, -1.4130974, 1.3799219, -2.5875754, 0.06572886, -1.8794204, 0.87528205, -0.30327022, -0.69252086, -3.272829, -1.5030533 ]
        },
        {
          "Bias": -0.1527906,
          "Weights": [ -3.04017, 0.6704895, -1.043212, -1.3499703, 1.2668209, -0.801259, -2.9452918, -0.56820166, 3.2929444, -0.24171221, 2.137458, 4.4029384, -1.0615025, -0.894155, -3.9651458, 1.1502988, -2.028489, -1.3085413, 0.5461744, -2.9725108, 0.8124831, 0.70469415, -0.14168668, 0.58888024, -3.8682647, -1.280049, 1.6024208, 1.0616536, -3.1673012, -3.6284902, -0.21238649, -2.9426508 ]
        }
      ]
    },
    {
      "Neurons": [
        {
          "Bias": 0.6840011,
          "Weights": [ 2.5658367, -4.0128694, 1.1939254, -1.1946936, 3.2546763, -0.6110015, 0.078663826, -2.156662, 1.9258717, 2.3353887, 1.6712136, 0.072080046, 2.1371164, 5.8862896, 0.55061626, 0.07564446, 0.9333701, -0.31584305, -1.1558462, -0.9882715, 0.7508392, 0.73675925, 1.1518471, 2.8001432, 2.3777244, -0.041092634, 1.8923771, -0.796069, 0.013967514, 1.0640018, -0.53013074, -0.30259866 ]
        },
        {
          "Bias": -0.47560692,
          "Weights": [ -0.7829083, 0.7068191, 2.2284877, -0.43850356, 0.34085214, 2.6211946, 0.71234095, -0.37176508, 0.68150663, 0.97392535, 2.079484, 1.758405, 0.239712, -0.396173, -2.7896914, -0.8192306, 4.7582407, -0.3948732, 0.8499875, 0.10288538, -1.9766414, -0.39449108, -1.0877186, 1.1380945, -3.2501087, -4.344231, 0.45203596, 1.117024, 1.1117234, 0.1538192, -1.2397118, 1.25042 ]
        },
        {
          "Bias": -0.050940365,
          "Weights": [ 2.2203915, -1.5794683, 3.5698462, 2.3941326, 0.6405679, 0.6862271, -1.327178, -7.083004, 1.247033, -2.4363034, 3.0312848, 0.30042738, 1.1101794, 3.3276188, -4.649013, 0.82532334, -1.0519496, 0.40896994, 0.49, -0.77141577, 0.42149282, -2.725916, 1.1394279, -0.48211515, -2.1038442, 4.221676, 0.34963596, 1.7031766, 2.1291597, 0.52840906, -0.7814425, -2.7467318 ]
        },
        {
          "Bias": -1.2000552,
          "Weights": [ -3.986682, -1.0554353, -1.9904028, -1.9975433, -1.1726837, 1.500103, 1.1962159, 2.0556467, -0.62281305, -3.079134, 2.1612535, -0.6103037, 0.86520916, -2.695095, 1.3532788, -2.442871, 0.34613213, 3.5392127, -0.8214567, 1.9897978, -3.174821, 1.2464823, -0.3572327, -3.4863744, -1.533437, 1.7053721, -1.7785267, -2.5267637, -1.1484027, 0.02660203, 0.17289922, -1.247958 ]
        },
        {
          "Bias": -1.4702749,
          "Weights": [ 0.7670628, -1.3801091, -2.5244641, 0.66394955, -1.374313, 2.0831263, -0.12311584, 0.01586631, -3.1245525, -0.09711218, -3.520633, -3.1164787, 2.1730485, 1.8663117, -2.2581294, -0.16078267, -0.37563068, -2.787239, 0.590111, -3.070387, 5.7136784, -0.6318261, -1.7618521, 4.163068, -4.312469, 1.0320587, -0.057278395, 0.16077067, -1.2556754, 0.44941872, -0.6142407, 3.0550704 ]
        },
        {
          "Bias": 0.8444118,
          "Weights": [ -1.8657395, 2.2520404, 1.6225524, -0.4110135, -4.3390684, -1.6859424, -5.453623, -5.752039, -0.53356737, -0.19339876, -0.48388964, 2.1939116, -2.2959719, -2.9243667, 1.2692937, -0.51595443, 0.7363786, 0.8790716, -2.067892, 0.35258013, 1.9767671, -0.13343346, -0.13489515, 3.1499326, 0.8830398, -0.6664634, -2.2551067, 2.842885, -1.2399994, -0.00040602684, -5.828885, 0.8103682 ]
        },
        {
          "Bias": -1.123189,
          "Weights": [ 0.05520442, 1.4842861, -0.80509543, 2.6446085, 0.07893017, -0.91565704, 2.404028, -2.3953958, -0.58679813, 1.5586873, -0.26039875, -0.57, 0.6926753, -0.7530463, 0.70846474, 1.2267306, 0.565877, -3.407412, 0.25669825, -0.573224, 2.5912564, -1.7494051, -1.897612, -1.212255, 1.7441688, 2.6782858, 2.1544104, 1.7025576, 1.4812405, 0.903673, 0.41851515, -0.7473176 ]
        },
        {
          "Bias": 1.587189,
          "Weights": [ 0.89887226, -1.7386925, -3.7830052, 1.0532796, -0.73467386, 1.4862176, 0.5952177, 0.16891724, 1.467019, 4.4266586, -1.0447245, 1.3955225, -1.0437473, 1.5946954, -0.9804802, -1.1131766, 1.8239242, 0.9346032, 0.7817755, -1.0552001, 0.6148102, 2.488423, -0.3229617, 1.3857276, 2.8310347, -0.9374529, 2.1238055, -2.312822, 0.19759455, 2.421691, 0.97981864, -1.8185904 ]
        },
        {
          "Bias": 0.5215659,
          "Weights": [ 0.22785515, -0.0016663037, -0.29011506, -2.7583206, 1.0888014, -1.5006641, -1.4406401, -0.15179658, 1.0595216, 2.913405, -0.6273651, 2.1418912, 2.0571733, -0.81904936, -0.9132676, -1.1239964, -0.2483784, 0.90705305, -2.5724506, -0.5795294, -0.56905425, 1.4666297, 0.32124352, 0.5972823, 2.973268, 0.06638467, -0.055826053, 0.2728814, 6.479305, -2.5332634, 1.0217284, 1.0531178 ]
        },
        {
          "Bias": 0.8265582,
          "Weights": [ 0.780823, 2.0739322, 2.3389177, 0.491194, 4.45382, -2.1325378, 2.26558, -1.4287083, -3.6411471, 0.30445552, 0.008722186, 1.7260746, 1.7657247, -0.37018025, -3.8191547, -1.0489359, 5.0442457, -2.3180778, -1.0820677, 1.7439058, 0.30816132, -1.9025887, 0.7651229, 0.2205249, 2.4337757, 0.8093685, -1.9450595, -1.1667889, -1.5533031, -1.5947757, -2.3396294, -1.7078139 ]
        },
        {
          "Bias": 0.0010377169,
          "Weights": [ 0.022854388, -1.1180062, 0.3907677, -0.9077757, 2.6933517, 0.5497792, -0.9174275, 3.1652327, -1.0958792, 4.547913, -0.20144546, -1.9921126, 3.5210114, 1.1279163, -0.068832636, -0.3541087, 0.94870394, -3.123531, -0.7038005, -2.3360713, 2.5374727, 4.200275, 0.084936626, 0.080512404, 1.6371408, 0.983735, 0.0393942, -1.5785114, -1.3209044, 0.24492514, 0.061778814, 2.3968763 ]
        },
        {
          "Bias": -0.64585716,
          "Weights": [ 1.2962271, 1.9768662, -0.63343966, 0.29241255, 1.3714, -0.43927357, 0.63708174, -1.992159, -3.431367, 1.3469784, -1.1804788, -2.525407, -3.0984304, -0.2579866, 1.1750941, 0.3138324, -1.7108548, 0.79355514, 0.68, -0.4382534, -0.75007296, 2.7206752, -2.1852202, -0.6024256, -0.96590954, 0.54316604, 0.4437182, -1.0321245, 1.5194935, 0.5195453, 1.576843, -1.8523005 ]
        },
        {
          "Bias": 1.0528938,
          "Weights": [ -1.0300566, 1.6084237, 0.8408382, 1.3240207, 1.9296067, 0.20438853, -2.2989237, -3.9296377, 0.5691092, -0.6, -2.1458986, -1.083066, 9.290219, 3.3855205, 0.8596714, 0.19078618, -4.0961275, 3.051629, -0.6075163, 0.9377288, -1.9282091, 2.3325756, 0.6012529, 1.3793802, -1.4185072, 2.0309045, 4.6542788, 0.021011353, -1.3302455, 1.2198671, 2.8632317, 0.6435863 ]
        },
        {
          "Bias": -1.0457933,
          "Weights": [ -0.9997282, 1.0369074, 0.48799306, 0.6753063, 2.093287, 2.6650734, 2.1494298, -5.434258, 1.4271467, -1.4936885, 0.4989335, -0.96438205, -1.213427, 2.6684728, 1.4605279, 0.88236475, -1.2388077, 0.6256244, -1.4300704, 1.780251, -0.5363183, -0.4292615, -2.1430013, 1.466512, -1.2523402, 2.0698965, 0.04209459, 2.4058843, 7.3463736, 3.3685832, -1.2594541, 1.0533357 ]
        },
        {
          "Bias": -1.541316,
          "Weights": [ -4.9377103, 0.77964187, -0.25167274, -0.08736408, 1.3451443, -1.9951925, 3.9537783, 0.5923243, 5.7251334, -2.7927978, -0.09364432, 2.1004598, 0.372266, 3.0112195, 0.86470985, 1.7557971, -2.3444095, 4.6788683, 2.375746, -5.3139153, 5.816028, 0.1467005, 0.7828816, -1.2006886, -0.2446298, 1.326299, 2.2933416, -0.43137726, -0.62502754, -2.0232599, -1.0155296, 2.7595158 ]
        },
        {
          "Bias": -1.4527198,
          "Weights": [ -0.93646264, -0.56221175, 0.62366223, -0.20594007, -0.9335067, -1.1892189, -0.01933074, 0.2126298, 0.047686398, -0.85549414, 1.163196, -3.15455, 2.707101, -1.5725721, -0.2031944, 0.05932498, 2.82701, -1.0635839, 0.031303883, 1.3572528, -6.7475524, -0.44034773, 0.15861326, -0.63811004, -0.80639267, -0.6037301, -2.2003422, 0.52, -0.2463246, -0.012299657, 0.9327016, 1.0062561 ]
        },
        {
          "Bias": -2.1932886,
          "Weights": [ 0.93557906, -1.2198635, -1.0730269, 2.1533115, -1.4368104, -0.6819329, -2.6967995, 0.7046171, -2.9958694, 5.2883263, 2.661296, 1.4550481, 2.23287, 5.673552, 4.311898, -4.1129193, 0.2649367, 1.621819, 3.4960763, 0.35208434, 1.1534096, 3.5391524, -0.368828, 2.9247394, -1.3783801, 0.011642575, -1.7885015, 3.3007202, 1.8780098, -0.2641392, -0.66032195, 5.893433 ]
        },
        {
          "Bias": 1.7325593,
          "Weights": [ 3.4542146, -0.037513494, 3.1791224, -0.49654293, -1.4263266, 4.534043, -0.55766666, 1.178076, 0.12711826, 1.0591199, -5.6063747, 2.0644186, 4.01911, -0.77370584, 0.479125, 1.0058521, 4.2612276, 0.3549301, -0.7941271, -0.7708101, 0.40491956, -0.67110354, -0.8099138, -2.3337946, -1.9590154, 1.4917285, 2.9973364, -1.3409638, -0.5668514, 0.82813746, -3.6709595, 0.93946505 ]
        },
        {
          "Bias": -0.28050542,
          "Weights": [ 1.3363847, 1.2221605, -1.0949056, -2.2881284, -0.07993111, 2.5715365, 0.86937976, -1.8428525, 0.9387591, -0.5601443, -0.95454633, 3.772832, -0.83, -3.1108594, 2.9308634, 1.9362555, -1.4554832, -1.2115228, 1.039229, 1.4666312, 4.900528, -0.22012684, 0.99481285, -1.0830227, 1.0607743, -0.897248, -3.8976002, -1.8183885, 0.27650616, 1.1971695, 3.650575, -1.5870204 ]
        },
        {
          "Bias": 0.32181844,
          "Weights": [ 4.495033, -0.6712679, 0.7559572, -1.2392056, 1.2851242, 6.7501874, -1.1989657, -1.6516669, -0.7859932, -4.5576477, -1.1030158, 1.5245528, -0.558287, 2.7559474, -2.0145464, -0.002966553, 2.336414, 2.5572517, 4.002548, 2.2152371, 2.5285861, -1.7954569, 3.410036, 0.84416205, 0.6334644, -0.47974384, -2.2004786, -0.51456535, 2.6603446, -0.27600187, -0.44630072, 1.2659491 ]
        },
        {
          "Bias": 1.9387859,
          "Weights": [ -0.63603973, 0.15009063, 1.4833226, 0.41803497, -1.2065544, -2.0448296, 2.212317, 1.8302102, -0.8289038, 2.3641303, 1.9719961, -0.1752066, 2.7453861, -0.69566476, -1.5419247, 2.1393735, -0.15513617, 3.7570467, -0.21230185, 1.134348, 2.0053492, 0.06496996, -3.1435397, 1.072937, 0.2882017, -3.175737, 0.0962584, -0.5135553, -0.37858123, 3.7178082, 0.15336666, -1.1834767 ]
        },
        {
          "Bias": -2.11799,
          "Weights": [ -1.7235832, 0.36835003, 1.443574, 0.52716106, 0.99889356, 3.4584792, -0.021979272, -0.1008171, 0.49377516, 3.0554173, -0.28200048, 2.2002826, 0.1, -0.09000307, 0.15719455, -0.712343, -2.608972, -0.6503364, -1.9206, -0.70377475, -3.2916389, 1.3597162, -0.73671275, 2.5453367, -0.71738404, 5.1104155, -0.92185825, -0.8496796, 0.41807687, -1.6657717, 0.14938891, -1.570468 ]
        },
        {
          "Bias": -2.649983,
          "Weights": [ 1.3256414, 1.8934863, 3.3218277, -1.3592422, 0.006970763, 2.431734, -0.16438657, -2.6261077, 1.7174522, -2.4769733, -0.6749352, 1.3618764, -1.1241652, -1.4972694, 2.4599695, 0.5291868, -1.0993874, 1.3742187, 1.02555, -2.22547, 3.39706, 0.4115256, 1.8382702, 1.4492712, 2.431779, 0.530497, -1.6177939, 1.529308, -0.74716365, 1.7900511, -3.398354, 0.37636667 ]
        },
        {
          "Bias": -0.1689423,
          "Weights": [ -0.88449734, -0.9599035, -1.4600307, -1.2169058, -3.0313528, 1.4590755, -0.42838368, -1.4616768, 0.57429004, 1.5278339, -1.9975665, 0.7752185, 1.6599519, -1.2663878, 1.7626915, -0.8249379, -1.6076885, 3.5717404, -0.7446927, 0.5872966, 0.68590826, -1.0504434, 2.3150525, 1.699486, 2.16056, 0.9358461, -0.3455005, -3.2534797, 1.5133122, -2.324471, -2.1097372, -0.45547414 ]
        },
        {
          "Bias": 3.5818138,
          "Weights": [ -1.4743695, -0.8263434, 1.4525042, 2.1458697, -1.9890026, 0.4757844, -2.4982884, 2.5451086, -7.2761917, -1.0965149, 0.82876384, 1.3012677, -0.07200432, 3.037052, 1.2333419, -0.83512855, -0.47175294, -0.96474284, 2.2151225, 0.28951904, 4.1168194, -0.34644663, 2.3150518, -4.488641, -1.3786384, 2.753561, 2.0505304, 1.3603928, -1.9035208, 0.10347009, -0.29910278, 2.6321402 ]
        },
        {
          "Bias": -1.5202502,
          "Weights": [ -0.67559916, -1.2002325, -2.9436543, -0.13509619, 0.067590505, 1.0298849, 0.9989475, -1.9610218, 3.234974, -2.0227926, 1.7356845, 2.2748864, -2.7847607, -3.3664515, -0.64157784, -0.29107904, 0.05980736, -0.018648982, -0.37923086, -0.6959379, 1.7842026, -6.1668177, 0.91037893, 1.1183348, -3.599742, -1.3118002, 0.2376569, 0.34774682, -2.7595625, 3.944478, 1.8261434, 6.0638514 ]
        },
        {
          "Bias": 1.0561504,
          "Weights": [ 1.9162309, -0.599993, 1.9494629, -2.4994323, 3.4597929, 0.89, -2.1025705, -0.43586445, 0.6206707, -1.9266473, -1.0895545, 0.9916378, 1.8766277, -0.18674529, 0.057585, 1.5037112, 1.3228989, -1.4982474, -1.4040242, -2.0542376, -0.2331361, -1.0529447, -3.2037718, -1.0723345, 1.945707, -2.0156353, 0.45677286, 1.1885108, 0.2624063, -3.2301712, 0.72404903, 2.5890985 ]
        },
        {
          "Bias": 0.24993396,
          "Weights": [ 1.9953154, -1.4336585, 0.27386248, -1.0746101, 0.53001714, -4.185886, 0.9141263, 2.4320736, -0.96888214, -9.302051, -2.5641441, -0.40778643, -0.4843874, 2.4747334, 0.1493324, -0.7284114, -0.04, 1.973481, -0.35011095, -0.50837636, -3.7257566, -2.363264, 1.3536729, -1.8742847, 1.0633366, -0.4302216, -2.9532459, -0.35434914, -1.805295, -2.1077774, -3.6853988, -1.8093476 ]
        },
        {
          "Bias": -0.24398822,
          "Weights": [ -1.4670601, 1.9594543, 4.78094, 4.245899, -1.9262938, -0.8497455, 2.2596664, -0.3729595, -0.69404846, 1.6686211, 1.5362291, -3.9697518, 1.3528531, 2.970028, -0.7705291, -0.5135278, 1.3887802, -0.87699634, 0.89363885, 3.653933, 2.348719, 0.76280975, -0.11963278, -1.0919919, -1.1204907, -3.4091399, -0.64592695, -2.2810864, 0.8213607, -2.1379087, -0.48546726, 4.513258 ]
        },
        {
          "Bias": 1.025655,
          "Weights": [ 0.0045980215, 2.0708768, -4.3116775, 0.2766043, 0.21748698, -0.9030939, -1.3313886, -0.2705902, 1.0380529, -2.6256912, -0.67788804, -1.4006716, -4.7698183, 2.1358438, 1.5206457, 4.7604795, 0.8689147, -1.4864674, 1.1316537, 0.73019785, 1.0795959, -2.2543812, 3.6982138, 0.24314347, 2.7088876, -2.9556692, 1.0399356, 2.0419505, 6.5526342, -3.2944555, -0.93796396, -3.9367812 ]
        },
        {
          "Bias": -0.81118613,
          "Weights": [ 4.472499, 2.4266152, -0.6, 1.7104372, -3.0491247, -0.2513436, -1.5178977, -1.9654459, 2.16244, 1.8951696, -0.9205591, -0.12798798, 0.015353799, 2.1956232, 2.8026223, -1.3660506, -0.8231107, 2.582668, -1.823596, -1.3808116, -0.33818328, -2.6514213, -0.8158344, -0.8242477, -1.8098253, 0.4744482, 1.2804911, 1.331459, 0.55979526, -0.4055133, -2.0412734, 3.2440124 ]
        },
        {
          "Bias": -0.9830686,
          "Weights": [ -0.5562001, 1.7524155, -2.8232574, 3.4430652, 0.02368027, -0.23736858, -0.21, -1.1822455, -0.16847122, 1.136869, -0.3395414, -3.842059, 1.2961347, 0.45342147, -0.5581963, -1.3594828, -0.21176073, 0.6625719, -0.19626167, -0.3657078, -3.4951525, -1.2294905, -0.8517738, -3.2678165, -1.8824337, -6.9316425, -2.5011458, 1.3123715, -4.3793836, -4.1497893, -0.49251014, 4.237553 ]
        }
      ]
    },
    {
      "Neurons": [
        {
          "Bias": 1.8092964,
          "Weights": [ -0.9634837, -3.682197, 1.0826182, -1.881461 ]
        },
        {
          "Bias": 3.8875089,
          "Weights": [ -7.349146, -4.654634, 0.76149887, -0.19271699 ]
        },
        {
          "Bias": -0.42379123,
          "Weights": [ 0.34957254, -2.0592768, -3.6822302, -0.20787743 ]
        },
        {
          "Bias": 0.23163185,
          "Weights": [ -0.5058664, -0.030491412, -2.1633391, 1.816124 ]
        },
        {
          "Bias": -0.86656904,
          "Weights": [ 0.58072126, 0.06324084, 0.058530986, 1.0085183 ]
        },
        {
          "Bias": -2.3377907,
          "Weights": [ -0.9231852, -0.69247866, 2.0291598, -0.8285755 ]
        },
        {
          "Bias": -0.613294,
          "Weights": [ -0.054217577, -2.4264412, -2.0917826, 3.3262463 ]
        },
        {
          "Bias": -2.788005,
          "Weights": [ -1.0488722, 1.7014579, 0.9295188, -2.7633898 ]
        },
        {
          "Bias": 4.31437,
          "Weights": [ -0.12515181, -0.15032634, -2.5081086, 2.8897057 ]
        },
        {
          "Bias": 0.6071237,
          "Weights": [ -1.0450261, 0.43948254, -2.7653174, 2.854479 ]
        },
        {
          "Bias": 0.07809858,
          "Weights": [ 1.0923553, -0.21431231, 0.116554156, -1.5460218 ]
        },
        {
          "Bias": 0.6055277,
          "Weights": [ 0.99, 2.78051, 0.36120665, 1.4933174 ]
        },
        {
          "Bias": -1.6348162,
          "Weights": [ -3.7738907, 2.1337183, 1.1122205, -1.0691763 ]
        },
        {
          "Bias": 3.0594244,
          "Weights": [ 1.4214772, -0.4793069, -3.1546705, 0.65482265 ]
        },
        {
          "Bias": 0.88165545,
          "Weights": [ 0.5463716, 4.9618125, 2.358866, -1.4851809 ]
        },
        {
          "Bias": -0.50887066,
          "Weights": [ 0.3075847, -2.3927732, -2.0768688, -1.8781507 ]
        },
        {
          "Bias": -4.3422174,
          "Weights": [ -0.7510481, -2.1288505, 0.18714896, -0.18124723 ]
        },
        {
          "Bias": 0.37635326,
          "Weights": [ 0.2, -0.65090585, -1.4887269, 0.24734223 ]
        },
        {
          "Bias": 1.3778222,
          "Weights": [ 1.5553985, 0.1802429, 2.354339, 3.6126752 ]
        },
        {
          "Bias": 3.974618,
          "Weights": [ -2.9864864, -7.14746, 0.38319582, 2.6230562 ]
        },
        {
          "Bias": 1.9032794,
          "Weights": [ -0.39812052, 1.062505, -0.19242203, -0.06022799 ]
        },
        {
          "Bias": -0.84817946,
          "Weights": [ -2.0403342, 0.09789851, 0.44920656, 3.4257557 ]
        },
        {
          "Bias": -1.1027004,
          "Weights": [ 1.9951681, -3.688065, 0.2896525, -1.9348193 ]
        },
        {
          "Bias": -3.8809528,
          "Weights": [ -0.38657326, -0.69965994, -0.5535166, 1.475522 ]
        },
        {
          "Bias": 0.84233034,
          "Weights": [ -0.69279355, -2.368152, -1.4093788, 2.3292985 ]
        },
        {
          "Bias": 1.0635092,
          "Weights": [ 0.4310994, -1.218314, -0.42318976, -1.2380302 ]
        },
        {
          "Bias": 1.8421755,
          "Weights": [ 0.42788363, 2.83289, 2.2241015, -0.102474436 ]
        },
        {
          "Bias": 1.433522,
          "Weights": [ 3.1333098, 0.23634613, -0.37117273, 0.60666466 ]
        },
        {
          "Bias": -0.4570809,
          "Weights": [ 2.6241512, -1.6510894, -0.60512537, 0.44419217 ]
        },
        {
          "Bias": -0.096393466,
          "Weights": [ 3.3041003, -4.116913, -3.0130322, -4.3557806 ]
        },
        {
          "Bias": 3.662444,
          "Weights": [ -2.960877, 2.85985, -2.4474149, 0.49499243 ]
        },
        {
          "Bias": 0.0013279915,
          "Weights": [ 0.4112115, -1.6446185, 0.37567955, 1.9809885 ]
        }
      ]
    },
    {
      "Neurons": [
        {
          "Bias": 2.2846231,
          "Weights": []
        },
        {
          "Bias": 0.65040714,
          "Weights": []
        },
        {
          "Bias": 1.4184371,
          "Weights": []
        },
        {
          "Bias": -0.7086061,
          "Weights": []
        }
      ]
    }
  ]
}